9996 16
the -0.06764632 -0.0019423263 -0.02208712 0.023183882 -0.048187543 -0.060102772 0.0058423537 0.05297351 0.04193858 0.0042798957 -0.074472934 -0.03844314 -0.026344867 0.022505097 -0.0041689207 -0.02049863
and -0.08302 0.09611561 0.0035984332 -0.10985162 -0.0037658135 -0.080859564 0.044928107 -0.08788978 -0.020881929 -0.090027854 0.005105536 0.002187949 0.058134962 0.018703755 -0.018901737 -0.14492835
a -0.028716654 -0.03333428 0.04647336 -0.034906235 -0.037822016 0.071870394 -0.110886954 -0.026838023 -0.05094489 0.001760453 0.023600407 0.0625613 0.012985569 -0.1940189 0.009576746 0.036163714
of 0.08224782 0.058062423 0.045944232 -0.0040949215 0.0054331175 0.026986893 -0.11912544 0.043283425 -0.035641536 -0.030517671 -0.039484147 -0.053416383 -0.07021258 0.017254269 -0.04865486 -0.01990583
to 0.015739424 -0.01668316 0.06629692 0.00050526846 0.015282021 0.00034516174 3.083439e-05 0.05022014 -0.021405485 0.01038688 0.028546607 -0.020992603 -0.04151081 -0.043860987 0.012112076 0.026239317
is -0.124164626 -0.0032605557 -0.06071379 -0.0014929796 -0.05642288 -0.022708733 -0.100749835 -0.054196738 -0.032777615 0.08237481 0.067779094 0.052232422 0.057879988 -0.19312568 0.033329874 -0.07177437
br 0.016724542 0.029686417 -0.020988155 0.054292623 0.0048868237 -0.020591052 -0.041739326 -0.022424042 -0.056349225 -0.003079954 -0.015434178 0.041818503 -0.019339358 -0.0052771536 0.030987134 0.0060603064
in -0.014601209 0.06829336 -0.000914132 -0.052166384 -0.044375855 -0.028788961 0.003918905 -0.019770171 0.047389675 0.03318085 -0.027615827 0.04989327 0.08017179 -0.09047497 0.011595842 -0.009727397
it 0.026409173 0.057795268 0.01932939 -0.07851214 -0.07455143 0.013663563 -0.06916173 -0.069331616 -0.01395664 -0.009216421 -0.023070723 -0.020184608 0.034497898 -0.031121088 -0.06500848 -0.07703372
i 0.1185452 0.009035182 0.011456709 0.07396097 -0.014392536 0.04827853 -0.13121365 -0.05552325 -0.08424558 0.037991513 0.0009376871 -0.024846436 -0.014023191 -0.082410075 0.03177372 0.05168824
this -0.050177503 0.038724806 -0.06021147 0.063522525 0.056710146 -0.045227237 -0.011144471 0.05879349 0.017405504 0.013932565 -0.067602456 0.0032588372 0.037500612 -0.012290354 0.036503498 -0.04788759
that 0.03340929 0.028430296 0.036952775 0.071768746 0.020101277 -0.04248919 -0.055762224 0.0077305157 -0.040096506 -0.0058946214 0.015926277 -0.015266601 0.013299587 -0.07131891 -0.061647452 -0.022712197
was 0.0069480157 -0.02675924 -0.033556525 0.019849293 0.030917834 0.011340498 -0.04108872 0.034776766 -0.023788383 0.06719509 0.081529446 0.043940898 -0.04606741 -0.085914545 0.029871386 -0.023466578
as -0.073624566 -0.05819525 0.025494872 -0.027567506 -0.060640007 -0.003687375 0.08114478 0.01570145 0.030692428 -0.057435468 -0.067110695 -0.09404332 -0.01616736 0.073592074 -0.07146543 -0.091962695
for -0.0047012074 0.00291736 0.021758368 -0.046669487 0.002121596 0.0034179348 0.016577726 -0.020014547 -0.04631388 -0.010326615 0.03641947 0.005594701 0.00796649 -0.09731193 0.02886245 -0.06149646
with -0.10337176 0.060433675 0.053365044 -0.044806115 0.027689483 0.07799717 -0.14097992 -0.0697362 -0.06917188 -0.061012495 0.055262282 -0.05017507 -0.00067633315 -0.1384422 -0.0043463116 -0.047502782
movie -0.078156985 0.05794986 0.07347377 -0.015157095 -0.018017275 -0.07091029 -0.022053165 0.05267062 -0.005535162 -0.009251865 0.028283242 -0.035691544 0.012196323 0.008706587 -0.07153802 -0.069124214
but -0.04878624 -0.017443376 0.022633128 0.009304008 -0.06342974 0.03889165 0.09696107 0.001609165 0.0011311305 -0.011917791 -0.099858046 -0.035907492 0.08008948 -0.13402921 0.026465898 -0.02556338
film 0.0015482628 -0.01376049 -0.007676882 -0.019726835 -0.021462675 -0.06744617 -0.03376892 -0.040703237 0.007342459 -0.057778057 0.06367054 0.02613188 0.009899577 -0.013835249 -0.020350568 0.01150055
on 0.08789974 0.018941067 -0.034211416 0.025269357 0.094247974 0.029381022 -0.11271235 0.045025796 -0.08233144 -0.02978207 -0.006581573 0.037881766 -0.023546962 0.017367566 -0.01642805 0.011009306
not 0.04711389 -0.025363643 -0.027265666 0.049904313 0.06965227 -0.01004699 0.042522814 0.053037 0.048520472 -0.014511259 0.139464 0.019627629 -0.06348597 0.070993975 -0.0593309 -0.02811629
you 0.077749446 -0.024352137 0.006160795 0.06355467 -0.045505058 -0.045933295 -0.017073907 -0.021706682 -0.03694564 0.033372328 -0.06302379 -0.10309585 8.236266e-05 -0.033422742 -0.063861676 0.077146314
are 0.031833988 -0.0154450275 0.021633422 -0.04994747 0.07439936 0.0006722987 -0.057221778 0.0068539167 0.08947638 0.019303728 0.059133675 -0.02823176 0.022858871 0.022435753 -0.006755439 0.022943545
his -0.06155048 -0.04284539 -0.028265866 0.06781029 0.026655486 -0.05445784 -0.008073214 -0.027363852 -0.01751072 -0.033105396 0.039673522 0.0011135993 -0.017708845 -7.999054e-05 -0.066825524 0.06822088
have 0.04699189 0.01021285 0.041456293 0.064095825 0.060164947 -0.0028116417 -0.06319778 0.020759307 -0.06003699 0.05268518 0.0070605176 0.028383948 -0.034688286 -0.0077160723 -0.010973659 0.021868855
he 0.04859539 0.031337928 0.002110404 -0.010586074 -0.032163493 0.08128224 -0.012442485 -0.009869986 -0.044508904 -0.016196141 0.0503205 0.0064667854 0.0310875 -0.019451732 -0.040029693 -0.012297011
be 0.017453937 -0.03428124 -0.041689437 0.037404608 0.002416116 0.014345703 0.012877914 0.037455183 0.0077347043 0.0045587653 -0.026443318 -0.054151554 -0.04693601 0.0658735 -0.019660136 0.008402415
one -0.040491953 -0.036498103 0.004092387 0.004765362 0.060641047 0.02451506 -0.047865078 3.098828e-05 0.014853401 0.0735628 0.020490339 0.0054053124 0.015199716 -0.00031567903 0.00068805035 0.055529706
all -0.041395437 0.0042106225 -0.04213837 -0.030087901 0.038885754 -0.0036010449 -0.069785714 0.012447707 -0.036208607 0.0389376 0.02815529 -0.011700944 -0.02884437 -0.13023736 0.004857285 0.04921549
at 0.0003016951 0.010357935 0.035896976 0.088123426 0.093978986 -0.0509219 -0.10641463 0.0052652913 -0.015842522 0.0624974 -0.05255022 -0.02564204 -0.021759646 0.026018534 -0.0007267066 0.04538564
by -0.042824022 0.060451463 0.07507548 -0.04391944 0.013451878 0.048965696 -0.022120317 0.00078800076 -0.050681755 -0.028382106 -0.03701446 0.026556278 0.005014321 -0.002173362 -0.037013423 0.04506652
an 0.03674437 -0.01083646 -0.044326738 0.031835165 -0.00629756 -0.02450153 -0.078047946 0.037008807 0.014252585 0.010924698 -0.009531289 0.012971889 -0.014369186 -0.021141246 -0.059924386 0.047834862
they -0.01647468 0.0030382744 -0.01640622 0.0028021643 0.05438462 -0.043158595 0.046984997 0.010842042 0.0051367325 -0.052314505 0.018222183 0.035858188 -0.028427988 0.06864948 0.0017261308 0.03498804
who -0.06806163 -0.08746448 -0.034974195 -0.054898668 0.02995056 -0.043102346 -0.06181192 -0.011278711 0.060045946 0.009563454 0.07186546 -0.06142809 0.023069942 -0.0030323023 -0.03869002 0.008101276
so 0.028005864 -0.004573501 -0.051613044 -0.0262525 -0.017812163 0.046574876 -0.06873014 -0.05687093 -0.073018454 0.06463455 -0.010142075 0.020947525 0.035001177 -0.10440047 0.07575496 -0.021065757
from 0.013399308 -0.006425217 -0.03134293 0.0488635 -0.04088492 0.058670253 -0.044433642 0.020960882 0.0055473056 -0.002468959 -0.04424273 -0.013855704 0.03322296 -0.07021262 -0.048192006 -0.020533582
like -0.071123585 -0.013043891 -0.010195119 -0.042784434 0.043392 0.028516596 -0.08192184 0.0457047 -0.019277737 0.019991564 -0.023953084 -0.0017047959 -0.036360256 -0.04305609 -0.036419507 -0.008374154
her 0.030234698 0.06428092 0.014041519 0.026650352 -0.048578747 0.06145261 -0.07422456 -0.07469737 0.032943178 -0.031536214 0.020151742 -0.032531306 0.030334424 -0.032237962 -0.002574673 0.018545145
or -0.044402104 0.067844 -0.02997812 -0.016373724 0.024577709 -0.04057656 -0.02685835 0.050545637 0.025795555 -0.0326098 0.121367745 -0.003833646 0.012026666 -0.004403492 -0.012567364 -0.02964779
just -0.050689846 0.008612616 0.05550658 -0.06781696 0.08437629 0.06028528 0.027673848 0.1020873 0.03566551 0.033645865 -0.013123536 -0.008045316 -0.021175154 -0.06534636 0.050861813 -0.059382662
about 0.016307628 0.0016997899 -0.017278606 -0.06074933 0.031808447 -0.0036267557 -0.060554124 0.03183787 -0.03624225 0.025501419 0.047701 -0.012343744 -0.0033536917 0.07588789 -0.0011196579 -0.0056446865
it's -0.010561481 -0.012273954 0.04834822 -0.059390664 -0.0023248997 0.01943666 -0.06136075 -0.011347312 -0.09354333 0.003899376 -0.05232605 0.10991544 0.07671337 -0.041416574 -0.06775643 0.038157202
out 0.028897488 -0.04833586 0.033470478 0.0188611 0.081063494 -0.022703387 0.00663678 -0.01859508 -0.03421545 0.040763665 -0.080365345 0.011987845 -0.015263275 0.03953005 -0.0772443 0.023890516
has -0.06770312 0.01096213 -0.011573997 -0.044743244 -0.022251002 -0.006425452 -0.07686728 -0.023302943 0.019089697 -0.03210981 0.055351067 -0.006059501 -0.04076433 0.0034591032 -0.045428187 -0.0773006
if -0.024760077 0.01082767 0.0002535219 0.017826285 0.02774872 -0.014256223 -0.0165937 0.07361431 0.006271102 0.040873975 0.052345134 0.063766725 -0.06516987 0.034441825 -0.04646396 -0.023852566
some -0.07116401 -0.056559436 0.034219734 0.008150038 0.043823235 -0.005956214 0.02915613 0.025705367 -0.047106124 -0.073265776 0.07419038 0.05713603 -0.002810773 -0.0884477 0.050228424 -0.020218456
there 0.06631086 0.014447842 -0.055237062 -0.047742803 0.09420615 0.045793176 -0.02044404 -0.045884896 0.06903023 -0.03213931 0.10181459 -0.04014742 0.010487933 -0.03362622 -0.029395036 0.00049786305
what -0.0055659977 -0.06578535 -0.0012560519 -0.07354403 -0.004200521 0.030196145 -0.01326079 -0.038877267 0.018584376 -0.03569511 0.0079355445 -0.024874842 0.008900776 0.014290026 -0.03126969 -0.030385718
good -0.10137254 -0.051054075 0.03238318 -0.029581716 -0.011457287 -0.0582139 -0.06334172 -0.0039086062 -0.06795952 -0.009518479 -0.07105803 -0.016192524 -0.016915808 -0.093513325 -0.09176401 0.0013382627
more -0.0067834463 -0.000799377 -0.008961015 -0.006006359 0.016771276 -0.032667488 -0.027535457 -0.016650226 -0.0038508673 -0.029930657 -0.078005716 -0.07785833 -0.00963763 0.012432198 -0.040014554 0.011497486
when -0.02697827 0.052890494 -0.039986726 0.03905378 -0.026272915 0.04690912 -0.019255213 -0.014562273 -0.078465685 -0.07539166 0.012627228 0.03967678 0.040272534 0.10382033 0.053995058 0.0025041394
very 0.071609475 -0.06420984 -0.045929234 0.011882947 -0.008826868 0.17087486 -0.09723847 -0.07355553 0.05507406 -0.015848044 -0.016819334 -0.049302932 5.364692e-05 -0.16709913 -0.075388074 0.08180659
up 0.02496657 0.03210453 -0.043069717 -0.026685772 -0.035749678 0.03180025 0.032968957 0.013779677 0.024222763 -0.060862783 0.06557869 -0.033453267 -0.039041553 -0.13943034 0.0306721 0.048398543
no -0.008712427 0.08269839 0.012799173 -0.017346958 0.079996124 0.033865374 0.059084613 0.043068543 0.06718154 0.020306444 -0.012850124 0.038293544 -0.061081734 0.017174719 0.04549584 -0.035555784
time -0.01752419 0.0444991 0.0065087928 0.013857924 0.0217089 -0.0159395 -0.07176619 -0.012736184 -0.038431928 0.028784407 -0.011710291 -0.04749118 0.02103726 -0.08742151 -0.014899215 0.07584146
she 0.015271663 0.0010416151 -0.052122276 0.015736347 0.013348677 0.070815004 0.008294166 0.040603783 -0.03038974 0.014653588 -0.047325592 -0.006990951 0.025692722 0.0015004656 0.020548243 -0.02735069
even -0.102384664 -0.022564657 0.02770153 0.053921565 0.021978408 0.06531292 -0.052542023 0.0781646 -0.0838351 0.0053255875 0.008932554 0.058391325 -0.0483347 -0.087094314 0.07453561 -0.032830432
my 0.01043891 -0.05115046 -0.105309255 0.0032411232 0.0143600525 -0.0060310964 0.0047037373 0.010528202 -0.056240145 -0.03708789 0.00949848 -0.0047049597 0.03612691 -0.07678738 0.006773987 -0.044377994
would 0.040305298 0.04914108 0.046714813 0.04195841 0.050101057 0.0072620334 -0.010843159 0.015410736 0.04926039 -0.0050397837 0.01227906 -0.031704593 -0.055291496 0.045601062 -0.008752655 -0.05557406
which 0.0041704783 -0.0067739636 0.010578247 0.04172339 0.03575626 0.043510437 -0.031700864 -0.020708686 -0.06482568 -0.012943534 0.04640855 0.0008782114 0.009321879 0.0104093645 0.03243198 0.044865455
only -0.029642288 0.0035466056 -0.03171791 0.017741377 0.01688023 0.05274929 0.013186212 0.037236724 0.0063536847 0.012703885 0.007375237 0.05641617 -0.054202 0.050562214 -0.008202585 0.0150283715
story 0.03398851 0.026427455 0.058278672 -0.025742551 0.009915561 0.072030626 -0.06656384 -0.09296333 0.0008185028 0.051960643 0.024478879 0.071060985 0.05932895 -0.031542297 -0.052079428 0.013321797
really 0.057378884 0.039914165 0.042234715 0.0025108727 0.07186048 0.04751495 -0.0012563737 -0.03423539 0.05534624 0.026790297 -0.04633473 -0.03653567 -0.05208088 -0.0987109 0.022597581 0.046616066
see 0.008884241 -0.03143302 0.026065348 -0.07191407 -0.023081042 0.0041912394 0.020109799 -0.019193249 0.060718264 0.012710985 0.039001565 0.002491199 0.05855745 -0.05686946 -0.048905306 0.010447748
their -0.034806218 -0.0038439187 -0.043593314 0.0030751135 0.0053993464 -0.05589251 -0.006849919 0.003924739 0.051385943 0.024637826 0.030805305 -0.0060944925 -0.0069682733 0.0074021867 0.016789895 -0.046903707
had -0.0673739 -0.01407603 0.019858534 -0.016815167 0.0060933675 0.011892973 0.0015159624 -0.015166483 0.049902763 0.07407302 0.019532109 0.046985738 0.035864264 -0.036196094 -0.007385914 0.061221823
can 0.016402 0.0038641389 0.06326836 -0.0010637264 0.024059433 -0.033091705 0.055645663 -0.03040358 0.006796626 -0.042573623 0.033110034 0.022948122 -0.010875835 0.022814633 -0.042791706 0.03902055
were -0.09640477 0.005081099 0.028798113 0.012208589 0.03979052 0.05823284 -0.007042504 0.037289657 -0.008742424 -0.058197256 0.030530076 0.019956252 0.0044216313 -0.038285524 -0.027933856 -0.046142537
me 0.037274018 -0.030288529 -0.020169966 0.017168287 0.0116487965 -0.0926105 0.058517717 -0.028329205 -0.067534134 0.029103946 -0.058642823 0.015369148 0.0021011124 0.07637885 -0.019922193 0.018768838
well 0.032743808 -0.019807393 -0.04099767 -0.06914548 -0.06293475 -0.021253308 -0.029822718 -0.07166044 -0.0011855905 0.03556919 -0.01319878 -0.06297626 0.10308903 -0.09479586 -0.02591839 -0.07632532
than -0.0058885384 -0.023775397 0.035304077 0.006170003 0.04581656 0.014386624 0.0028785798 0.019004919 -0.060958818 0.020202572 -0.049370516 0.027363922 0.022669073 -0.029102558 -0.006588224 -0.035002246
we 0.027333444 0.007069113 -0.05222644 0.030540131 -0.002700591 0.04407023 -0.02488297 0.017333698 -0.002764235 -0.042725228 0.04904457 -0.031008516 -0.0051833107 0.03710777 -0.03051765 -0.018956779
much -0.034282006 0.008601684 0.040940374 -0.017793369 -0.014006702 0.06057963 0.0070679 0.0623461 -0.039748263 0.0051107365 -0.07367586 -0.017098745 -0.024205508 -0.092104234 0.024127414 -0.05271287
been -0.0417133 0.045523565 0.015241594 -0.039735626 0.058931235 0.04994288 0.037894268 0.047519226 0.009312369 0.022633133 0.06888638 -0.018357411 0.030902212 -0.06969965 0.061217096 -0.042333335
bad 0.044406634 0.12068867 0.04265 0.031990025 0.08451549 -0.00062768365 0.11540826 0.07749488 0.04915141 0.054623738 -0.02606712 0.01534255 -0.100619905 0.117418274 0.13941519 0.00109305
get 0.0061491043 0.014132462 0.016164638 -0.07799382 -0.05898211 -0.019282844 -0.031781387 -0.007903836 -0.058892436 0.041783117 0.070694 -0.035242032 -0.05186182 -0.03403677 -0.0108169215 -0.012642937
will -0.028303644 -0.040839072 -0.00899619 -0.044962984 -0.043617096 -0.022268562 0.0006155706 -0.061154727 0.046678048 -0.037853315 -0.038014717 -0.012083246 -0.017820979 0.07483239 -0.06701264 0.0052302834
do -0.026258001 0.049500562 0.06002816 -0.08224789 0.039307594 -0.03211418 0.024852106 0.071572945 0.00047895018 -0.0408655 0.015626652 -0.008851539 -0.03509725 0.09490911 0.069522716 -0.011780852
also -0.018279502 -0.08095138 -0.06610822 -0.104558796 -0.08079977 -0.060612764 -0.13935868 -0.027559182 0.0720944 0.017313277 -0.043863323 0.016143616 0.06302873 -0.06822736 -0.122129574 0.073266506
into -0.009904513 0.030977173 -0.011458715 -0.013919988 -0.00974847 -0.041104723 -0.09178775 -0.07439164 -0.006094284 -0.0056704856 -0.01434588 0.034509324 -0.03469293 -0.059661232 -0.02517543 0.046836827
people 0.0039931596 -0.029032663 -0.008121244 0.0025170217 0.008274283 0.019038783 0.015648197 0.02918257 -0.08483314 -0.026319737 0.016169088 -0.017267803 0.0136347525 0.03399923 0.0036153898 -0.032782566
other 0.025804134 -0.02648962 0.009142647 0.015373816 -0.09286138 -0.02864546 -0.044763774 -0.012343086 -0.02987097 -0.026069963 -0.00018436254 -0.062325303 -0.030515384 -0.038185235 0.0008032746 -0.06816009
first -0.020277256 -0.0477343 -0.03167551 -0.012320011 0.06917073 0.029043062 -0.019011213 -0.018087015 -0.0060871765 0.04763095 -0.052837383 -0.037165835 0.03906384 -0.0027912348 0.010315391 0.006539247
great 0.047903612 -0.14804198 -0.06926299 0.09709682 -0.055752065 0.0796205 -0.15452668 -0.14754227 0.030193109 -0.020447241 -0.16532062 -0.0639978 0.10289307 -0.12790434 -0.1421642 0.17330702
because -0.043862082 0.057306986 -0.00091972225 0.008954659 0.012924907 -0.01525722 0.0015752743 -0.012088811 0.039441302 -0.013534462 0.049846943 0.018937742 -0.0068603368 0.022543816 -0.061047286 -0.01611562
how -0.0377675 -0.013079463 -0.05167039 0.03853319 -0.058157224 0.030673742 -0.08551607 0.012680289 -0.03757663 0.028016308 0.02114635 0.012642131 0.025260754 -0.15560417 0.05405539 -0.005227912
him -0.042536862 -0.03646847 0.022481898 -0.0029597739 -0.007863963 -0.037175827 0.06761413 0.051972754 -0.060928054 -0.006322705 0.0055013257 -0.030093107 -0.051394954 -0.010416247 0.016395159 -0.0054040947
most -0.017578462 -0.095871344 -0.094569646 -0.037763346 -0.079679035 0.034709483 -0.070834674 -0.0012657908 -0.10082955 -0.020985391 0.013629609 -0.063406214 0.05369951 -0.04227824 -0.0441803 -0.0650984
don't 0.015009293 0.03787466 0.026705554 -0.04712566 0.052059416 -0.050849997 0.02332599 0.07453538 0.0033995847 -0.032230414 0.05371961 -0.07257984 0.048852406 -0.02881417 -0.009654396 -0.02749225
made 0.0070156823 -0.016188959 -0.0015916144 -0.0011558573 0.034716133 0.0055426448 -0.05202828 -0.04058477 -0.07073399 0.009120304 -0.07148921 0.045271702 0.050602797 -0.010967361 0.045015287 -0.004357405
its -0.012083433 0.047580123 0.020825334 -0.06993148 -0.07354556 -0.060469188 -0.079221025 0.005656596 -0.101452015 -0.03911852 0.07684452 0.02293328 -0.0042574843 -0.04884667 -0.0156956 -0.04893631
then 0.032141782 0.043676797 0.048698332 0.06292296 0.08147016 -0.039368197 0.05297342 0.020840447 -0.038459886 0.011731191 0.0075333044 0.039601453 0.000451042 0.04023713 0.09171712 -0.033551324
way -0.0075500016 -0.025079751 0.013040967 -0.024527546 -0.040717505 -0.052309703 0.056423448 0.030186463 0.03680092 -0.014472658 0.055714145 -0.080252 0.036725547 -0.042494867 0.014671483 -0.029318973
make 0.0002790177 -0.025477372 -0.0012523944 -0.06989466 0.050577942 0.05726708 -0.054004908 0.012523877 0.008993131 0.10462347 0.060905885 0.05857828 -0.059763916 -0.08647214 0.061492424 -0.05270528
them 0.08749859 0.02313977 -0.00960486 -0.015405276 0.0036304714 -0.008972658 -0.094310105 0.0005687579 -0.022784535 -0.029878194 -0.030048557 0.020184513 -0.03624149 0.04196594 -0.0046010516 0.036453903
too -0.106798515 0.06209647 -0.027571654 0.04330258 0.025260482 -0.032744586 0.011937778 0.008378029 0.03654523 0.08353691 0.008222221 -0.031832635 0.032411028 -0.03301396 -0.01699609 -0.09350493
could 0.0043562907 0.0091917915 0.007703821 0.006138427 0.05829579 0.023927117 -0.0036942319 0.054521203 0.09746201 0.030356972 0.028309658 -0.027320258 -0.023895342 0.038519055 9.435229e-05 -0.067773364
any 0.022969693 0.015299717 -0.009725435 0.04323546 0.022604376 0.06309645 0.013800704 0.09746566 -0.015310994 0.013595246 -0.052893434 0.065876216 -0.05948585 -0.057517387 0.024486864 -0.024378322
movies -0.0056718774 -0.070448235 0.0067901793 -0.018488692 -0.0070206015 0.044517424 -0.09281255 0.0030084602 -0.037172016 -0.052268527 0.0031760747 0.022837633 -0.02802417 -0.049391806 -0.012235487 -0.07639875
after 0.0069660586 0.012386621 0.021658663 -0.008259422 -0.08329978 -3.5019217e-05 0.046350222 0.05046356 -0.053646963 -0.048994806 -0.026947914 -0.05503733 0.0045463475 0.022441415 0.013112156 0.015091615
think -0.097228795 -0.07299853 0.011243156 -0.006847597 -0.039943706 -0.007385643 -0.009474688 -0.031559084 -0.041055847 -0.00063986355 0.053219233 0.007322926 0.016378643 0.0036104575 -0.022145964 -0.02585284
characters 0.00043565608 -0.050802235 0.0229782 0.06680531 0.035351127 0.060362015 -0.09808963 -0.018222814 0.034549143 0.06070179 0.016411087 0.042706594 -0.05308925 0.011398768 -0.010033995 0.020833557
watch -0.078747824 0.021800775 0.009313928 -0.09874669 -0.0038318702 -0.0064923223 -0.01609554 -0.056666106 -0.07943087 -0.02606726 -0.054536756 -0.029859051 0.005664284 -0.062262155 -0.05072312 0.0588272
two 0.008456505 0.07060107 -0.026096642 -0.07570405 -0.063359804 -0.049846817 0.03658194 0.006864491 0.043800406 0.04272868 -0.031927906 -0.01866222 0.044586144 0.06298953 -0.05937952 -0.043993834
films -0.0006646076 0.008869238 0.02207018 0.040050983 0.009655289 0.039179295 0.008850984 -0.00518726 0.039800942 0.059705783 0.051942296 -0.012925308 -0.044203833 -0.020150138 0.046070848 -0.029014776
character -0.029880896 0.033796627 0.044930242 0.034800816 0.027325613 -0.044391718 -0.09256492 -0.03239617 -0.044922978 -0.029618982 0.010900917 -0.024089312 0.058654856 -0.04968501 -0.004792617 0.08053185
seen 0.08180234 0.0060479087 -0.11098979 -0.04691288 -0.046067886 0.022446303 0.038316883 -0.083867416 0.036261566 -0.005350063 -0.0030575902 -0.07875695 0.010632602 0.014165321 -0.05986453 0.0054076198
many -0.03652562 -0.078095354 -0.06835798 -0.041379176 -0.08445709 -0.01098003 0.047645062 -0.064434916 0.00012892508 -0.014096662 -0.035039436 -0.025641989 0.09153747 0.014117829 -0.035078343 0.012955916
being -0.023454469 -0.036118004 0.013857426 -0.029154643 0.003576084 0.01022745 -0.029074483 -0.029686552 0.028002294 0.008659369 0.0030392606 0.01110838 0.031848516 -0.06265339 -0.029105825 -0.042835176
life 0.07733297 0.0541223 -0.06440427 -0.012342357 -0.12919118 0.036553074 0.0012831645 -0.11792176 -0.06343504 -0.106389225 0.037171237 -0.01563427 0.004456939 0.02301182 -0.013237594 0.0042838557
plot 0.045803715 0.04117038 0.0774495 -0.015611498 0.09965156 -0.035292383 -0.09645654 0.1161291 0.030066352 0.0012345567 0.15736939 0.095327936 -0.023832584 0.072488144 0.033351973 -0.085436374
never 0.041839924 0.015695497 -0.0621489 0.026772024 -0.027941266 -0.0019895087 -0.02909003 -0.023372814 0.047134094 0.017804 -0.07624299 -0.034359377 -0.026727974 0.07139298 -0.043559723 -0.042557444
acting 0.03848139 0.007175714 0.056719173 -0.0178967 0.06261656 0.027056517 -0.14374919 0.04559858 -0.08178152 0.124575965 0.18648262 0.12154963 -0.029965403 -0.07629927 0.07105318 -0.029862111
little 0.06455103 0.043486875 0.025441723 -0.01675547 0.027984727 -0.011634222 0.014603602 -0.02835674 0.02912142 -0.04853418 0.060314707 -0.059935916 -0.035071023 0.087493815 -0.06063703 0.04655768
best -0.022045214 0.023766471 -0.13767698 -0.040281612 -0.16015776 -0.092044994 0.16130175 -0.062988326 0.025984414 -0.09199186 -0.13294865 -0.11028966 0.11267143 -0.082295835 -0.13745877 0.01386874
love 0.060681745 -0.048237164 -0.07709363 -0.07112365 -0.11206434 -0.010906846 0.09551135 -0.11783263 0.00839781 -0.042441987 0.0077216397 -0.05065172 0.052711453 -0.005371689 -0.054002646 0.03410933
over 0.063505255 0.008932563 -0.005710612 0.0014031305 0.07411132 0.040593773 0.0728427 -0.022072727 0.04348043 0.07426293 -0.021441886 -0.024762684 0.006240071 -0.02792465 0.012934627 -0.015697386
where -0.10900312 -0.011278074 0.015510725 0.002707113 -0.023306098 0.07382171 0.021857914 0.014084132 0.007418386 0.005064771 0.028012311 -0.041971844 -0.013914116 0.06869679 0.006852793 0.00761423
did 0.017203782 0.020684471 0.071401 -0.03697021 0.011418577 0.00070256944 0.0112931235 -0.031615306 0.014985406 0.034991417 -0.034054164 0.00063165487 -0.03891127 -0.033479918 0.032284576 -0.0325864
show -0.040306617 0.027075397 0.067188166 0.0024240504 0.038569693 0.08249623 0.0074243643 -0.06544779 -0.0010676682 -0.049753133 0.019405423 0.042600594 0.024235517 0.017135294 -0.058073085 0.026744748
know -0.0005604312 -0.032264896 -0.013411824 0.055157077 0.015779201 0.016395377 -0.0315386 -0.02398132 -0.026682654 -0.018490538 0.06976105 0.01752098 0.078641936 0.009523652 -0.013956686 0.0727338
off 0.017133238 0.059921823 -0.026261732 0.0632335 0.020419171 -0.02643004 -0.06403843 0.04268656 -0.010504809 0.076096855 -0.05619195 0.047599763 -0.06860425 0.017803028 0.027226306 0.026652131
ever 0.10221622 0.0022003627 0.040314578 0.043651227 0.02136276 -0.07019008 -0.048259176 0.041821353 -0.024301602 0.019248534 -0.18696436 -0.057474375 0.010528394 -0.04664377 0.013289534 -0.008241594
does 0.055403903 -0.07276966 0.019723367 0.054105844 0.003408903 -0.030876637 -0.11146061 -0.0704122 0.05323856 0.02130808 -0.023178065 0.058461297 -0.0097663365 -0.0013767089 0.019438425 0.036160655
better -0.006956347 0.016446967 0.10767326 0.033140313 0.0050730077 0.017003216 -0.019896943 0.054561775 0.01979743 -0.04063399 -0.010722734 0.024867058 -0.040983614 0.056972593 0.0019544165 -0.01448659
your 0.043677177 -0.014301319 0.08524366 -0.04291257 0.071880765 -0.05307384 -0.18083647 0.033894774 -0.041971188 0.0289971 0.028236786 -0.054781087 0.018027961 -0.020080969 -0.07035352 0.047084834
end 0.014028734 0.010977125 0.04871205 -0.037336715 -0.03854372 -0.07795661 -0.026029084 -0.008676821 -0.03241354 0.04814646 -0.061134297 0.010509291 -0.060618576 0.010532647 0.018659102 -0.030905353
still 0.056537986 -0.033012643 -0.018059006 -0.089999326 -0.018036662 -0.062061418 -0.031776227 -0.08497389 -0.052146137 -0.002728943 -0.015293379 -8.112506e-05 0.020963952 -0.09505586 -0.033459615 0.061500117
man -0.05096737 0.056757107 -0.038839765 -0.005253168 0.0062616793 0.055109203 -0.04791915 0.010855361 0.01704038 -0.007278747 0.10878336 -0.036794398 0.06398614 0.009642676 -0.017640883 0.007539074
here 0.037607815 0.063621774 0.043433033 0.042729124 0.02670158 0.07434521 -0.008928455 -0.019662604 0.035342578 0.03838759 -0.047627147 0.04292194 -0.00862908 -0.030711541 0.063501135 -0.046654914
these -0.04870891 -0.023040505 0.022017531 -0.0065114493 -0.056288425 0.039615255 0.03974096 0.03369066 0.032687366 -0.039675307 0.04215913 0.0227163 -0.07664208 -0.009840095 -0.06208099 0.012075777
say 0.010047558 0.052503828 0.04568158 -0.036860723 -0.00065808004 -0.04919184 -0.084351145 0.025269618 -0.021932933 -0.04273139 -0.0042146016 0.009860901 -0.025010586 0.037795458 0.024465978 0.057797253
scene 0.10195293 0.03276896 -0.03285185 -0.09408843 -0.01376014 -0.035643626 0.045792647 -0.06313231 -0.014530122 -0.046215072 -0.007054368 0.0065359 -0.048940167 -0.02230142 0.0016048396 0.047234233
while 0.050109062 -0.04107634 -0.028478213 -0.019058196 -0.07852885 -0.0078095756 -0.0039958516 -0.0054679154 -0.019037293 -0.051582806 -0.038336165 -0.07108837 -0.013556839 -0.037028417 -0.0061708936 -0.023067601
why 0.06680039 0.05894745 0.09696789 -0.016219253 0.045144606 0.022274986 0.054437507 0.080248244 0.021336311 0.10062476 -0.10940157 -0.027454693 -0.07554874 0.031198656 0.037284102 -0.044979986
scenes -0.052114483 0.022919198 0.016405348 -0.0078077 0.04798179 -0.05648631 0.02470933 0.00036390647 0.0033457219 -0.0076240534 -0.04713775 0.0064213937 -0.02432544 -0.017819751 0.02556281 0.005395829
go -0.08099456 -0.020806335 -0.039047766 0.009647882 0.016857445 -0.015994802 0.02439585 0.041547887 0.005062835 0.008261375 -0.021526096 -0.029600134 -0.06416788 -0.019727018 0.026720872 0.010672309
such 0.03550292 0.027439179 0.04261661 -0.025334608 0.012852274 -0.016631415 -0.10191901 0.047139857 -0.014127828 0.053490262 0.012156406 0.05384639 0.050152786 0.029075012 0.061629772 -0.041119173
something -0.06965228 0.07086375 0.009325441 -0.027344448 -0.0076884734 0.029352508 -0.046325725 0.01942088 -0.03750479 0.038373526 0.06837146 -0.060932603 -0.0142077 0.008432433 -0.013474669 -0.0051626074
through -0.0078735445 0.015813427 -0.011894397 -0.015875656 0.05215355 0.038275294 0.032973643 -0.01852143 0.014431939 -0.004378229 -0.05624583 0.015398224 -0.044173528 0.01587685 -0.0006256459 -0.02467678
should 0.018859208 0.02423426 0.019161573 -0.011311392 0.037371017 0.009426542 0.022074161 0.016109867 -1.0999226e-05 0.029925073 0.013060811 -0.022076817 -0.011924033 0.072730124 -0.05171922 -0.013561445
back 0.002532577 -0.0018892627 0.019374974 0.030682288 0.006825005 -0.011163557 -0.054050546 0.010967387 -0.013379843 0.009468671 -0.0073738433 -0.030122025 -0.030976478 0.02061232 0.029107958 0.012908154
i'm -0.04195009 0.072791584 -0.0213868 0.0058154888 0.009031663 0.08251922 0.06499456 0.018486032 -0.022749899 0.0779408 0.012307304 0.0097665815 -0.040183593 -0.028951092 0.05027788 -0.00925398
real 0.056292366 -0.0030826507 -0.045094553 0.008693071 0.011888112 -0.06664929 -0.057087522 -0.056100987 -0.048205774 -0.0064922622 -0.06831191 0.054331776 -0.00027715016 -0.014642116 -0.068522215 -0.06852721
those -0.057916716 -0.031402756 -0.034057423 -0.0019993284 0.017924707 -0.012661784 -0.05708715 -0.062133312 0.05822383 -0.037498154 0.04408053 -0.08205988 0.042368237 0.037282497 0.004516415 0.0014057455
watching -0.08350634 -0.01323268 0.035516426 -0.01296536 0.08092752 0.07125773 -0.035650484 0.00074789784 -0.04694407 0.023395171 0.01645321 0.01577674 0.008795634 0.023112403 0.07211578 0.002187077
now -0.0074496088 0.008293429 0.00020473367 -0.0889438 0.023779618 -0.059324097 0.018437007 0.0060675973 -0.08440608 -0.025450414 0.0021793384 -0.020507403 0.017834973 -0.02626872 -0.05772877 0.016422397
though -0.00010992813 -0.016001055 -0.019926315 0.05143254 -0.02315017 -0.0772776 -0.013285068 -0.043945324 -0.103854105 -0.07592209 -0.0128967995 -0.04139916 0.043731872 0.06265349 -0.06859373 0.04884121
doesn't 0.08469404 -0.042872988 0.084443375 -0.019483289 0.068459876 0.030515214 0.009608257 0.004898004 0.014504619 0.006118724 0.021841351 0.048000928 -0.017231312 0.0154196285 0.046112515 -0.024576912
years -0.009728233 -0.0037563527 -0.021329748 -0.0058232327 -0.008637715 -0.034582943 0.033293657 -0.018946715 -0.0023832922 -0.03454392 0.044989333 -0.012078835 0.04127621 0.090760745 -0.011497976 -0.022621486
old 0.023332663 0.0015210173 -0.0631086 0.017342966 -0.01293508 0.020579671 -0.0011748233 0.017565768 -0.03656092 -0.06183291 0.039051764 0.0023483483 0.04142051 -0.010995578 0.044030637 0.03174512
thing -0.02837516 0.026259342 0.04760149 0.037881795 0.028786557 0.07240356 0.097526155 0.030834466 0.049997207 0.083684474 -0.06898952 0.044101063 -0.03851107 -0.09585338 0.07722898 -0.04469668
actors 0.09016836 0.0327374 -0.0017369873 0.05211897 0.05928136 -0.10423434 -0.029536312 0.025452144 0.0820642 0.07114278 -0.11224868 -0.0018293497 -0.038483188 0.009721209 0.0075040483 0.016075104
work -0.03183744 -0.01526635 -0.04719138 0.016867138 -0.026444683 0.0055745444 0.03484544 0.00429394 0.018386552 -0.015373859 0.121180266 0.047908377 -0.003622629 -0.04301982 0.0071192626 0.0422893
10 0.05930155 0.088571645 -0.036307815 -0.08896945 -0.02388576 -0.13057181 -0.028303972 -0.10289045 -0.00082560006 -0.10401915 0.009797517 -0.13021626 -0.043087147 0.123769835 -0.092449486 -0.038095847
before -0.10720145 -0.02400045 -0.054283738 -0.11100999 -0.004511151 0.009822528 -0.017336963 0.008485073 0.004317301 -0.04252713 0.012678566 -0.04620358 -0.022302864 0.0456404 -0.012512427 -0.05708926
another 0.002173284 0.05007829 -0.0056063063 0.06668363 0.03590136 0.0061840923 -0.05088746 0.041654028 -0.035095356 0.0008202094 0.018166281 0.0008926104 -0.055425927 -0.092273325 0.03901199 0.032774787
didn't 0.06653343 -0.0016386381 -0.0008011199 -0.067146495 0.077507176 0.0029201037 0.021429356 0.07061021 0.03810939 0.04668219 0.03272278 -0.018446576 0.0011960766 0.04871795 0.029706521 -0.05524087
new 0.08329587 0.06884778 0.07097945 -0.011849778 0.07730472 0.027358377 -0.051109985 -0.014658811 -0.016610716 0.035179023 -0.040564887 0.0048955907 -0.042125504 -0.008558635 -0.0026555324 -0.08016273
funny -0.049942322 -0.037330788 -0.0058000335 -0.11033818 0.025651658 0.051959723 -0.0520702 -0.06816901 -0.040647797 -0.047672577 -0.0077370023 0.027558941 -0.040704448 -0.07486592 0.009393748 0.010437655
nothing 0.08996754 0.07251038 0.07224197 0.018581698 0.12950319 0.0058236634 0.038856477 0.086740695 0.06049979 0.13106757 -0.14482334 0.08156506 -0.120165594 0.046007678 0.14429624 -0.011775777
actually -0.0003542871 0.034332566 0.027461981 0.02287092 0.055471264 -0.035213836 0.0011226401 0.019318629 -0.037005875 -0.009954204 -0.029633489 0.016930606 0.009831051 0.07439724 -0.026510023 -0.04825457
makes -0.1315742 -0.0281905 -0.068461694 -0.08083102 -0.06184647 -0.02412887 -0.0105599305 -0.037517823 -0.07561595 -0.009983701 -0.007074822 0.008421075 0.08969818 -0.10915075 -0.09244339 -0.024278175
director 0.10464246 0.049324244 0.07101965 -0.020855352 0.04655011 0.0020455122 0.11384165 -0.03361261 0.09207511 0.025912985 -0.04556734 0.016957268 -0.04830124 0.12697192 -0.038546797 -0.04270367
look -0.053601988 0.03042465 0.054616008 0.043057732 0.086408556 0.019935628 0.009783553 -0.0010406977 -0.021878978 0.032947224 -0.013163019 -0.029584235 0.05302518 -0.033763904 -0.010835582 0.0026345456
find -0.0026901835 -0.07447998 0.00033253012 -0.030257873 -0.030637927 -0.0419513 0.09523498 -0.10645986 -0.06720172 -0.03743406 0.031566303 -0.09313329 0.017996114 0.034804694 -0.02934488 -0.022402927
going 0.0037354184 -0.035746515 -0.035837814 -0.046618875 0.015472553 -0.0047496753 0.048058145 -0.015795948 -0.041663777 -0.0126771135 0.0038406788 -0.026722172 -0.0147387525 0.0369743 0.019321442 -0.0066178287
few -0.04426673 0.0405092 0.013303957 -0.037741352 -0.020563794 0.043270256 0.011483846 -0.01155238 -0.051161725 0.055618636 -0.036886696 0.017459294 -0.047073897 0.01961436 -0.02833243 -0.018341396
same -0.074252 0.0011703433 -0.025864532 -0.014764974 -0.02600867 0.035162523 -0.018253265 -0.046506174 0.01735051 -0.011442297 0.017495397 0.03686971 -0.008196509 -0.004683 0.020050503 0.04357734
part -0.07108018 -0.016586764 -0.012070915 -0.052084547 0.034065124 0.0350215 -0.04541758 -0.049080472 -0.053579107 -0.04320834 0.09755408 0.04359482 -0.028352888 -0.03517421 -0.0035323184 -0.0035520825
again -0.01722132 -0.03702083 0.06530741 0.027820405 0.0028003464 -0.016255911 0.02006177 -0.023680111 -0.046387415 0.031121647 -0.009746674 0.014914565 0.008551144 -0.01957958 -0.05176755 0.00766446
every -0.048611443 -0.04258724 -0.081606075 -0.005222364 -0.05702736 0.055733208 -0.037096847 -0.0018837394 -0.04455086 0.0034157187 -0.057131 0.050797876 -0.04922186 0.018714556 -0.029221827 -0.031213315
lot -0.047420222 -0.038135946 0.023197394 -0.06088991 0.0036623417 -0.03382861 -0.08278801 -0.095800355 -0.02656998 -0.011018353 0.018741312 -0.1048591 0.06366097 0.07261117 -0.076336555 -0.019989122
cast -0.03470634 -0.021309426 0.035498902 -0.035360157 0.013967412 -0.0453407 0.06692384 0.0146231735 0.0059973584 0.041055724 -0.08849247 0.030205537 -0.0045437086 -0.023401177 -0.0594492 0.035539825
us 0.020710265 0.00086661195 0.012126242 -0.018160185 0.0065911734 -0.018397832 -0.04600946 0.004982856 -0.08346282 -0.061259933 -0.0325592 -0.049236596 -0.023968656 -0.020278843 0.025659028 -0.0013638962
quite 0.04333157 -0.053062573 -0.015242249 0.09624297 -0.014858417 0.011981963 -0.08912624 -0.12673895 -0.078222536 -0.07007293 -0.022865027 0.0003661419 -0.012416139 -0.012616498 -0.02122948 0.024472447
down 0.037525292 -0.059737384 -0.0048039015 0.061831668 0.00018947641 -0.012647106 -0.039417252 0.005927714 0.007473623 -0.06496816 0.03652585 0.0327739 -0.020121848 0.049882445 -0.070849694 0.0049141734
want 0.03946982 0.024129765 0.019867951 -0.014547731 -0.018705796 0.054430034 0.0388984 0.03912216 0.039672934 -0.021115024 -0.023617819 0.05914005 -0.05303781 0.0852315 0.05049684 -0.02674437
world -0.01530323 -0.06598917 -0.072867736 -0.056152623 -0.035854187 -0.022489216 -0.0289286 -0.068963245 0.038603906 -0.029840859 0.0066708005 -0.046778634 0.03701153 -0.021528881 -0.081885956 0.056232538
things 0.03120036 -0.043531507 -0.02849537 0.020644652 0.0024542774 -0.07786707 -0.07531012 -0.010609061 -0.099474125 0.010295938 -0.057391133 -0.019223733 -0.0075588604 -0.026358852 -0.013036168 0.06455998
pretty -0.06018247 0.0035671717 0.021388032 -0.030918032 -0.007965281 0.08540873 0.035747148 -0.016951878 -0.0022651444 0.10609657 -0.03644355 0.005583066 -0.06786736 -0.04351878 0.14571722 -0.10281534
young 0.03998847 -0.037621696 0.018298537 0.027169943 -0.01321222 -0.058888424 -0.04879502 -0.07053084 0.00708604 -0.055742808 0.035781484 -0.02015784 0.0138899 -0.04811899 -0.053197023 0.011891472
seems 0.023791634 0.08638423 0.03254506 0.041902803 0.045638308 -0.02293618 0.020974552 0.052873645 0.029977867 0.094345875 -0.023450652 -0.019141382 -0.004958126 0.009228374 -0.00010960292 -0.033167854
around -0.063050084 -0.07172304 0.045389812 -0.026104366 0.005899618 -0.0056654424 -0.0071385596 0.06470923 0.008905665 -0.04808078 0.06511748 -0.014318986 0.006744368 0.029634394 0.012388436 -0.0040732953
got 0.01850101 -0.08095862 -0.028567933 -0.067834824 -0.0390472 -0.011737413 -0.107468076 -0.06601155 -0.030854892 -0.008863976 0.040942587 -0.029385546 -0.012397085 -0.10477124 -0.0029212523 0.078278944
horror 0.00032964232 -0.015709504 0.0030094082 -0.030983668 0.07318346 0.04024094 0.06904518 0.011586362 0.044246648 0.011581762 -0.046142995 -0.037794843 -0.013476076 0.060364854 0.04651206 0.0020844184
however -0.08459862 -0.0010534428 0.04063867 0.022980979 0.021047765 -0.03217081 -0.031674568 -0.026927665 -0.02960146 0.050393477 0.000992908 -0.059134685 0.06765926 -0.10940419 0.022077953 -0.04589253
can't -0.0052126343 -0.036571316 -0.0032272716 -0.04147694 0.024733797 -0.0035381445 0.030888211 -0.015427135 0.015960727 0.00067999976 0.03320371 0.017983459 -0.05198213 -0.04227728 0.0049116057 -0.05138317
fact 0.023993835 0.004444333 0.011785097 0.05091839 0.04413667 -0.017357998 -0.08190717 0.008621058 -0.008876663 0.022207914 -0.03832013 -0.016747484 0.0836573 0.06993845 0.00044385393 0.02431274
take -0.059779365 -0.05000358 -0.04704367 -0.062510714 -0.014876694 -0.053835038 0.02318878 -0.08561416 -0.040793773 -0.011654958 0.064349554 -0.07031057 0.05204618 -0.106645525 -0.04579447 0.07392947
big -0.079601645 -0.047725827 -0.08180436 -0.014743398 -0.046342652 0.07576711 -0.0043052738 0.03178003 -0.072821796 -0.042113867 0.061536092 -0.041846614 -0.022764126 0.021691434 -0.033773486 -0.043008618
enough 0.0026010664 0.09136799 0.029989194 0.037191976 0.07504216 0.0666881 0.037762504 0.08306728 -0.017158704 0.05761974 -0.009809765 0.08373159 -0.05135982 0.018332802 0.076260835 -0.039288733
long -0.06261114 -0.0012742637 0.03866481 0.028343942 0.05473391 -0.03237339 -0.1051118 0.04900642 0.0019948033 -0.044417035 0.09352689 0.04488143 0.023995621 -0.041413568 0.041518696 0.016406704
thought -0.033212252 -0.0830836 -0.027473873 -0.07068673 -0.044935856 -0.008253251 0.009976004 -0.0002698323 -0.011572732 -0.0113846455 0.041790266 -0.055944458 -0.01812287 -0.00059481274 -0.08811193 0.04843141
that's -0.051602136 -8.634574e-05 0.07624505 -0.071982384 0.02173956 0.002819205 0.015291108 0.014903374 0.029781936 0.010145507 0.0286139 0.088567235 0.018643992 0.1183966 0.0011680418 -0.012984282
both -0.040597178 -0.021140072 -0.028873708 -0.0061808527 -0.056487806 -0.10065216 0.009693357 -0.09392091 -0.06687942 -0.04743232 -0.06759906 -0.019909855 0.0767136 -0.06571802 -0.085374914 0.076011516
between 0.038628474 -0.022054315 0.03658089 -0.049156275 0.021864632 0.12219314 -0.10912349 -0.050437395 -0.043474406 0.007812432 -0.022721635 0.016540127 -0.0055714105 -0.13074283 2.8732966e-05 0.07566766
series 0.015915588 -0.0352289 -0.041547507 0.008876149 -0.06039933 -0.031438254 -0.07077877 -0.05475465 0.04600266 -0.004245389 -0.003934696 -0.01081832 0.08927101 0.0281644 -0.019160217 -0.044222474
give -0.0972145 -0.055095077 -0.030489756 -0.03908582 -0.026070846 -0.011149695 -0.004938868 -0.0010870856 -0.00948665 0.008176736 0.11940623 -0.02638692 0.028914671 -0.011817793 0.036597226 -0.01145484
may 0.0350369 -0.01614787 -0.008930307 -0.01674507 -0.067281306 0.036006384 -0.015990704 -0.047188677 -0.026820917 -0.060547285 -0.0056727338 -0.078398585 0.083989345 0.030986866 -0.06683252 -0.026617486
original 0.019055543 0.029074565 0.0412841 -0.034013912 0.086559564 0.06755733 0.020848302 -0.012968604 0.012918277 0.045488346 0.020141724 0.055993807 0.000963565 0.03850149 0.075851075 -0.04452987
own 0.0078900065 -0.080035985 -0.030531043 -0.01726931 -0.082569 -0.029887727 -0.043670196 0.008853095 0.031434707 -0.02374431 0.038503435 -0.10424196 0.014640606 0.016389718 -0.00039222956 -0.08299604
action -0.06865364 0.02813426 -0.0017064386 -0.009046383 -0.035301786 0.011892475 -0.029507287 -0.025106862 -0.03891724 -0.028259877 -0.06815468 -0.05662761 -0.0054959077 0.039295968 -0.04372931 0.024637768
i've 0.035968065 -0.025363103 0.04553463 0.025263995 0.07237918 -0.0060965363 -0.08802585 -0.016894508 -0.05734605 0.031035475 -0.09075812 -0.027045602 -0.003930591 0.030493245 -0.00901016 0.076430514
right -0.094995975 0.018492887 -0.0953788 -0.04232638 -0.054844685 -0.12171396 0.034172505 -0.06933408 0.0024392349 -0.04657556 -0.02690598 -0.03372369 0.10156559 0.0104263825 -0.09594856 -0.05797209
without -0.090453446 -0.07506725 -0.040442333 -0.030627241 0.05065755 -0.007013391 -0.03884097 0.021191414 0.024586892 -0.009268168 -0.011235962 0.0070005185 0.009792062 0.0331436 -0.047002528 -0.00077116926
always 0.06502411 -0.035919107 -0.020409638 0.019820843 -0.08607435 0.012093992 0.13536334 -0.060738582 0.06007652 3.063548e-05 0.059656516 0.04084057 0.05899007 0.038745902 0.030027801 0.0029186544
times 0.044121496 -0.041642703 0.009253019 -0.09497132 -0.03945344 -0.066040866 0.07805564 -0.010615958 0.028626386 -0.07562855 0.005332696 -0.06397196 -0.012750366 0.029461704 -0.029575218 -0.056592096
comedy 0.05905391 -0.047999002 0.011657733 0.009512602 0.011367354 0.02460837 -0.022160312 0.002387082 -0.0042187492 -0.014553916 0.09631995 0.016872123 0.04666329 -0.027433328 -0.016187012 0.018934775
point -0.028652864 0.007350653 0.06443447 0.006575844 0.07127645 0.009583155 -0.0149264475 0.007277072 0.03950028 0.091018386 -0.0330822 0.07493052 -0.05729849 -0.042907797 0.03112362 0.008098463
gets -0.07465286 0.0055540665 0.040504623 -0.10702045 0.02175271 0.010691077 -0.066337235 0.019869141 -0.026024105 0.035956983 0.0021237398 0.000318894 -0.037880424 -0.03568542 -0.04591655 -0.06047817
must 0.07666423 0.0029950854 -0.0057782596 0.027412066 -0.03481521 0.10570115 -0.048933584 -0.03443522 -0.0016148754 -0.037435047 -0.117084906 -0.011138892 0.0669517 -0.0104584 0.014646057 -0.012590062
come -0.013344004 0.033149727 0.019154955 0.042004056 0.0067872372 0.07463889 0.047722492 0.030912418 -0.017288765 -0.058578033 0.020313691 -0.039464988 0.01804456 -0.0074351486 -0.033167515 -0.060762517
role 0.035848785 -0.033504404 0.013443587 0.1201901 0.040546935 0.061486434 -0.06302226 -0.0053114137 0.0636522 -0.030114727 -0.07194879 0.0151381325 -0.036449827 0.029176168 -0.09431253 0.06365231
isn't -0.0025499975 0.017965563 -0.037868507 -0.025075028 0.017415363 -0.044398606 -0.01943964 0.057223 0.078844264 0.012549809 0.062452737 -0.002878029 0.0062700724 0.033815987 0.04883107 -0.016633296
saw -0.06423297 -0.021518134 -0.017150173 -0.022192 0.026788045 0.08133786 -0.011096755 0.030978885 0.09788298 -0.025470689 0.044738326 0.03685022 -0.019060045 -0.007148394 0.025984114 0.024188893
almost -0.025672106 0.03646187 -0.0051482487 0.044864476 -0.0012496768 -0.032866035 -0.0031252638 0.028258234 0.06379341 0.002857369 -0.015612373 0.038979508 0.020604705 0.056680944 -0.01611121 0.007524041
interesting 0.01663781 0.08734746 0.0124630695 0.00034141983 0.037832916 0.07542286 0.043807346 0.06506511 -0.017965656 -0.0037012668 -0.052385677 0.053932693 -0.038635258 0.05343854 -0.005047756 0.0016274339
least -0.056870468 0.011365228 -0.020131063 0.047867335 0.010584158 -0.013369475 0.055454213 -0.00027358497 0.025000742 0.008426086 0.06949967 -0.03388262 -0.026310632 0.09511202 0.027144594 -0.015384925
family -0.12958896 -0.028684713 -0.06305494 -0.07127692 -0.082488745 -0.018240003 -0.009188785 -0.01927077 -0.059661027 -0.029571181 -0.0044159833 -0.01978813 0.025723642 0.020240568 0.00034961014 -0.058089096
done -0.052847866 0.0012792996 -0.030674087 -0.09123627 -0.041038394 0.07329498 -0.017126845 0.023006145 -0.035908133 0.02505421 0.03245479 -0.02066511 -0.03618988 -0.021468949 -0.028444419 -0.0114893
there's -0.0786803 0.07919058 0.013386851 0.043152332 -0.018499637 0.008226237 0.05469766 0.070113786 0.0448199 -0.002006722 0.022423659 0.003146821 -0.07910668 -0.05916281 0.022201663 0.014259407
whole 0.031171741 -0.002494886 0.018585533 0.04038922 0.07423749 0.025102882 0.06722629 0.0146134505 0.0532593 0.0781101 -0.019617833 0.069013216 -0.088247076 -0.0040099923 0.03202298 -0.06424894
bit -0.006070938 -0.05330798 -0.07197503 -0.00249274 -0.09767817 0.00205512 -0.02211707 -0.09022545 0.01333817 -0.031895082 -0.029825434 -0.0703943 -0.012195651 -0.018046033 -0.027734483 0.010293261
music 0.06849086 0.007304447 -0.04149044 0.045137353 -0.013073522 -0.013617698 -0.014500683 -0.023079244 -0.0036075537 -0.025881732 0.04644216 -0.046494726 0.028112873 -0.024833681 -0.020955656 -0.049592156
script 0.019434284 0.06840895 0.09421456 -0.013987239 0.12497544 -0.11498193 -0.07638542 0.04913341 0.07015979 0.11367323 0.08205254 0.11404865 -0.07417733 0.08242171 0.094570994 -0.013070176
far 0.09337974 0.05534134 -0.013243337 0.089494444 0.07057738 -0.031733707 -0.029141165 -0.012131586 0.057926856 0.06875292 -0.07061216 -0.010600412 -0.024589099 0.017399801 0.043167043 -0.009854307
making 0.036499687 0.07804876 0.064839706 0.09914919 0.030492399 0.023797687 0.045271218 0.069901146 0.002189962 0.051456716 -0.019847175 0.06506827 -0.06352084 0.0006982463 0.026781635 -0.028754897
guy -0.041352134 -0.034816917 -0.031354968 -0.0650738 -0.04367068 0.035079554 0.0337184 0.051409364 -0.059303656 0.029532235 0.027389409 0.013807813 -0.032236785 -0.08551938 0.0035808617 -0.034062095
anything 0.03152634 0.04931285 -0.02493001 0.11165844 0.057235215 0.03252707 0.059932258 0.048377313 0.032483164 0.047453918 -0.052340776 -0.06617709 -0.00808991 -0.11624296 0.07543864 -0.013656013
minutes 0.014809026 0.10171394 0.019373167 0.01371083 0.067255326 0.016399968 -0.009922328 0.092584506 0.0803122 0.031159049 0.017182425 0.0946619 0.0013726848 0.02338057 0.100188434 -0.037160054
feel 0.01584804 -0.06006494 -0.0073849256 -0.090363145 -0.05513885 -0.043454025 -0.088405654 0.0057274955 -0.034209758 -0.074207656 0.050892673 -0.009553918 0.06690229 -0.0582456 -0.058417905 -0.026877785
last 0.015688822 -0.08054323 0.018753147 0.012552857 -0.06736562 -0.095184796 0.026382225 -0.034148984 -0.0009957235 -0.038862936 -0.019027565 -0.014039659 0.01150196 0.030791808 -0.0935171 0.07456863
since 0.06738193 -0.040386766 -0.009913511 -0.059757728 -0.02783682 0.0019354584 0.014536057 0.005814085 -0.058854695 -0.012176001 0.022706317 -0.06571348 0.040296745 -0.048642952 -0.012745761 0.038543
might -0.02199249 0.033147227 0.027362863 0.046642523 0.07610099 0.0022762031 0.12482763 0.055723727 0.01783166 0.09846415 0.011966866 0.052025262 -0.024942132 0.054778166 0.06873601 -0.025970746
performance 0.07962288 0.060643386 -0.0029968226 -0.01445916 -0.044460073 -0.121819876 0.12540027 -0.09284696 -0.007103726 -0.041431412 -0.09175594 -0.07872323 -0.024259675 0.001153489 -0.00050588395 -0.1259959
he's -0.061739232 -0.050172884 0.048074186 0.022896292 0.042812463 0.0104796495 0.021145603 0.039930906 0.013727716 -0.009995244 0.07115704 0.0036798704 -0.0106322495 -0.06396923 0.039573926 0.013717442
2 -0.045878295 -0.033100493 0.038863383 -0.024464596 -0.010200501 -0.0092247585 0.008210071 -0.027704958 0.009726944 0.04019962 -0.027018415 0.0050373436 0.010169543 0.06098741 0.06583997 -0.005787009
probably 0.017212749 0.04148952 0.027065832 -0.04486346 0.022844348 0.027961204 0.010959833 -0.048636135 0.009728746 -0.004292439 -0.031215576 -0.023606475 0.00019036196 0.072944224 -0.023251465 -0.027832156
kind -0.025376318 -0.03504152 0.022974396 0.016571568 0.016228445 0.043113384 -0.04486216 0.027099654 0.024504252 -0.04972254 0.009911952 0.014011545 0.027268661 -0.077757515 0.0426566 -0.0433129
am 0.006866039 0.08100898 0.06760039 -0.009035921 0.062244356 0.030958785 -0.039845627 -0.0038304913 -0.010607804 -0.026620155 0.09952042 0.019696029 -0.008369619 0.04990465 0.03916961 0.02787345
away -0.071312174 0.037280057 0.014786299 0.07120687 0.025951827 0.008595727 -0.07154056 0.05468284 0.0062104478 0.011519912 0.052819993 -0.010063623 0.033492513 -0.0047639287 0.054785367 -0.025020879
yet 0.06642476 -0.077005625 -0.019651795 0.019786578 -0.005666307 0.026047073 -0.057088543 0.018990682 0.009946978 -0.017217519 -0.024298968 -0.011959707 0.044168327 0.008176737 -0.03401762 0.05003077
rather -0.034570668 -0.06810452 0.0020183278 -0.053300954 -0.05262005 -0.013373938 0.06975987 -0.010934201 -0.02909577 -0.08358744 0.07072461 0.015227721 -0.026918223 -0.012571837 0.011955297 -0.00790866
tv -0.018121898 -0.0129645895 -0.025598697 -0.011574012 0.023907177 -0.041546978 -0.020254267 -0.025395922 -0.055867665 -0.01829799 0.0194673 0.033195723 0.033004582 -0.004205295 0.006769587 -0.055423286
worst 0.14904787 0.1513227 0.12638728 0.008038281 0.1617337 -0.0031533136 0.09969136 0.18152022 0.12725247 0.10216443 -0.120701365 0.10772673 -0.12327521 0.03134731 0.12794766 -0.1863397
girl 0.010124901 -0.035086915 0.029324649 0.091095455 0.011511 -0.008249553 -0.0126307765 0.009971121 -0.034291703 0.019163748 -0.04629569 0.017805547 -0.0068452773 0.018691065 -0.027602857 -0.037294995
day 0.020776197 -0.040700793 -0.0030739338 -0.020342221 -0.0006389527 -0.038011663 0.04604554 -0.015243467 0.0024212261 -0.0017170348 0.007887017 -0.029390542 -0.00015260758 0.009434313 -0.026683008 0.010777803
sure 0.039667044 0.029115647 0.00067401497 0.019993179 0.0047388365 -0.071585596 -0.045975275 -0.05304252 0.04044409 -0.039769277 -0.059058856 -0.04792451 0.046132322 0.046502475 -0.02652571 0.07269803
fun 0.004371847 -0.06066403 -0.021355266 -0.01413372 -0.057965804 -0.018782834 -0.042695947 -0.08595579 -0.10080504 -0.097102195 -0.03000594 -0.077430956 0.03402893 -0.029343655 -0.121494174 0.08990158
hard 0.059556406 0.021983033 -0.0055376096 0.020544415 0.060418688 -0.05056437 -0.0020296243 -0.05841035 0.046675563 -0.016816374 0.031066729 -0.05854523 -0.027347866 0.036487583 -0.005175609 -0.01214398
woman -0.070254 0.023047596 0.021317312 0.06809896 0.001370535 0.014919873 0.04900499 0.10472913 0.04704176 0.046260227 -0.0055254954 0.05945186 -0.033215676 -0.008699381 0.07142309 0.04234835
played 0.012534888 -0.0028828671 -0.084218554 0.0048683113 -0.010028584 0.0019901516 -0.022334939 0.006918635 0.036958147 0.013987724 0.009968396 0.03422365 -0.013102296 0.014393059 0.01447996 0.007835185
each -0.06354966 0.0030711473 -0.039663244 -0.095766336 -0.028653644 -0.045457106 0.0550817 -0.07758426 -0.08145518 -0.019969832 -0.014842941 -0.082786046 0.039441485 -0.013033451 -0.026984114 0.06720847
found -0.008985588 0.020790422 0.011768516 -0.03635138 -0.0740357 -0.0051949304 -0.0009080559 0.0089088725 -0.05794048 -0.013524439 -0.09287136 0.0005443227 -0.0014592726 -0.007688826 0.045002338 -0.07166634
anyone 0.03298434 -0.008272567 -0.07250932 -0.076096386 0.0014556084 0.0030118157 -0.04853392 0.021461288 0.00085579464 -0.013053211 -0.04875191 0.013832047 0.042639785 -0.017410371 0.048789736 0.0048467303
having -0.0021053585 -0.07522136 -0.007106909 -0.04582466 -0.005158584 -0.023047239 -0.034925226 -0.050667826 -0.056226786 -0.070545904 -0.0060210875 -0.01928582 0.06671858 -0.010338037 -0.0018495203 0.07605812
although -0.05164004 -0.042013176 -0.00387838 -0.055019286 -0.01700546 0.009914915 -0.013024045 0.0053661307 -0.0777086 -0.046137433 0.014850621 -0.009099835 0.024587486 -0.02878085 -0.029904535 0.025516061
especially -0.05629096 -0.07821162 -0.08433258 -0.08685784 -0.018172318 -0.039068636 -0.04115623 -0.0038131713 0.0134523725 -0.042772908 -0.067221664 -0.12046686 0.082059175 0.07433393 -0.13127491 0.11101696
our -0.01256397 -0.07333822 0.036327925 -0.0061816135 -0.06032477 -0.019578505 -0.10128458 -0.061076943 0.0061863004 0.011395555 -0.07904117 -0.049122695 0.04931581 0.027818268 -0.08311165 0.062073056
believe 0.020271305 -0.0954626 -0.005584906 0.046782583 -0.051736683 -0.0072803176 -0.07750919 0.055756096 -0.03869149 0.064304866 0.055662245 0.04421084 0.02072556 0.014886076 0.0013492162 0.024275992
course -0.0010255463 -0.010564754 -0.015347143 0.05217143 -0.0035012914 0.006239984 -0.015381353 -0.026655924 0.015777608 0.008229333 -0.0011781874 -0.05769848 0.03556426 0.023661045 -0.036165997 0.001400022
comes -0.0063279546 -0.039579105 -0.090033434 0.016268544 -0.07592781 -0.08136275 0.024219634 -0.09526399 -0.023563065 -0.046421774 -0.014880528 0.00041687407 0.06567867 0.04194237 -0.026614206 0.05717587
looking 0.042225175 0.045346327 -0.020435143 0.12125382 -0.005586617 -0.039028104 0.0018234538 0.022713374 0.012813416 -0.020177256 0.05080672 -0.0058257314 -0.068842776 0.062257994 0.018456537 0.01657062
screen -0.022008022 -0.0403165 -0.018644184 0.052241832 -0.02229227 0.0075057987 -0.026598472 -0.03074566 0.04967068 -0.017521193 -0.0569019 -0.06247273 0.06579414 -0.021508768 -0.051701706 0.027593842
trying -0.006832506 0.047099866 0.006693516 -0.0062377765 0.017494971 -0.020899978 -0.0035245698 0.097865835 -0.009246007 0.03756472 -0.0365678 0.041124064 0.004563225 -0.057433225 -0.0023072392 -0.0498039
set 0.0093805995 0.0035670341 0.0616651 0.054300368 0.059062425 0.06720249 -0.018276943 0.010511648 0.0010274545 0.0129666 -0.00558966 0.052494325 -0.048371453 0.011958585 -0.005809623 -0.016045447
goes -0.04479757 0.07380093 -0.019924587 -0.034072574 0.048770085 0.07375739 0.054805066 0.043977913 0.12641683 0.074792884 0.1210385 0.0581823 0.0005522348 -0.06348758 0.06160502 -0.0020598269
looks -0.023997575 0.09104738 0.03378108 0.038221397 0.09294947 0.033786185 0.043648377 0.03226689 0.046513215 0.015020237 0.11740818 0.0755479 -0.060640533 -0.031134581 0.074550964 -0.05597078
place 0.034989364 0.015562497 0.032752924 -0.0013542207 0.042100534 0.06813975 0.040341243 0.056495287 0.018241284 0.013420906 -0.017920082 -0.06643967 0.014218616 0.07042547 -0.0123534445 -0.007372433
book 0.051185805 0.06253438 0.07647288 0.016968437 0.045792527 -0.029802173 0.017097319 0.013259779 0.010366806 0.06886999 -0.033143993 0.04590485 -0.039028063 0.015650399 0.068024494 -0.044048686
different 0.041702807 -0.05207015 -0.030216798 0.056975327 0.0011613691 -0.032445055 -0.06423717 -0.02549053 -0.101662055 -0.021248829 -0.0068538566 -0.046405606 0.03795403 0.0027795157 -0.0811287 0.07354861
put -0.043724515 -0.03690956 0.012149118 -0.034766678 -0.03121575 -0.065005615 -0.04781367 0.07461027 0.040712938 -0.045973297 0.07584306 -0.03858064 -0.00028001916 0.11977776 0.033109855 0.0057498147
ending 0.06637833 0.0757209 0.037114855 -0.014133794 0.016121203 -0.044894356 0.03720679 0.06981685 0.035560917 0.019947955 -0.034443874 0.042405996 0.057538364 -0.0132423155 0.014504045 -0.050165027
money -0.09579369 0.09143792 0.038903493 0.076315515 0.018003955 0.077458054 0.04842817 0.05490518 0.04909068 0.08529856 -0.0015056911 0.01958133 -0.040397227 -0.04539022 0.068639964 -0.041453555
maybe -0.02104172 -0.012464077 0.057122994 0.0037699533 -0.0007907025 -0.007539271 0.04323027 0.023297263 -0.021094272 -0.010997912 0.16867109 -0.042220276 0.028302373 -0.029458342 -0.02503624 -0.034123395
once -0.0004947241 0.0028675345 -0.08172601 -0.05390596 -0.040302526 0.054257296 0.046523243 -0.027953291 -0.03510746 -0.08458631 0.048824456 0.012463396 -0.0022347562 0.03341123 0.02536366 0.0005242037
sense 0.0072108796 -0.013993996 -0.017976755 -0.015170759 0.055664062 -0.0613314 -0.047662627 -0.034372866 -0.008360888 0.0060336925 -0.03494979 0.031517938 -0.004698153 0.05522973 0.007968853 -0.057380747
reason 0.01599366 0.06532071 0.06585813 0.023754122 0.041518282 -0.024240097 0.01472228 0.033059333 0.06746298 -0.020080084 0.07732594 0.01183835 -0.10064086 0.08959696 0.006927809 -0.03317931
true 0.025709435 -0.042711142 -0.05502754 -0.020733863 -0.12003408 -0.10052925 -0.020856999 -0.11857572 -0.08013185 -0.07647928 -0.08428285 -0.03754003 0.047845215 -0.04458258 -0.05297645 0.029392736
actor -0.02513274 0.019347392 0.0802502 0.011307951 0.0044206344 -0.014028175 0.07841398 0.004699797 0.053388633 0.06485429 0.08355981 0.0057114596 0.017968353 0.012019441 0.0700891 -0.08522572
everything -0.07624067 -0.10663243 0.013711898 -0.022776967 -0.107216895 -0.07911913 -0.001399663 -0.016021157 -0.060095236 -0.0070260246 -0.010558944 0.0054305554 0.078587204 -0.05173002 -0.021832682 -0.013425289
wasn't -0.04197688 0.07403551 0.049032312 -0.03581008 0.017053246 0.017039983 -0.009816093 0.0091491565 0.0069865272 0.07682965 0.03099403 -0.020677203 -0.10001479 -0.06363784 0.02410719 -0.0010208754
shows 0.07683965 -0.026600208 -0.039033826 -0.0048080217 -0.027890973 0.03996093 0.0005002352 -0.08874831 -0.11149154 -0.082232535 -0.03242007 -0.06563917 0.027690083 -0.029383833 -0.010596342 0.06277328
dvd -0.0043124156 -0.046367623 -0.028550847 0.029185979 -0.06588984 0.008068699 0.0073809954 -0.07740058 -0.037101805 -0.016805219 -0.0049227537 -0.05105714 0.09117992 -0.04240065 -0.086793125 0.06354173
three 0.042378817 0.025784098 0.06058188 0.023073968 0.0021713215 0.005353772 -0.011048795 0.012878304 0.06879301 0.06631082 0.0734966 0.05160587 -0.008362108 -0.03957454 0.027276332 -0.053400513
worth -0.1187171 -0.040472534 -0.08647552 -0.06240894 -0.09431649 -0.04686479 0.06586517 -0.09502132 -0.039962966 -0.033924874 0.022261335 0.058154255 0.019167861 -0.12681314 -0.09513976 0.03514871
year -0.031216867 0.06629743 0.05761796 0.0014592727 0.03513843 -0.020356216 0.0035476948 -0.062303983 -0.028582169 0.04536972 -0.0041151117 -0.005564524 0.01783761 0.014485762 -0.03244962 -0.03310017
job 0.07585316 -0.07140477 -0.04471614 -0.031798493 0.03817285 -0.048142884 -0.04721252 -0.09972966 -0.05044753 -0.09713174 -0.0051035476 -0.0033058575 0.061159097 -0.033305068 -0.07234205 0.09037337
main -0.012593526 0.038097695 0.018983554 -0.036816556 0.075942546 0.059940554 0.03968539 0.01149215 0.06198125 0.027673405 -0.0037126816 -0.049816564 0.04471294 0.006607985 -0.013924075 0.005405196
someone 0.015916264 0.13918264 -0.024127357 0.11169935 0.12173133 0.053557906 0.079668224 0.105359204 0.07550065 0.07158727 0.026091632 0.039094243 -0.026296174 0.030606752 0.06307264 -0.032335464
together 0.048434347 -0.032808743 -0.055088207 -0.0841059 -0.079077095 -0.09943393 0.029311022 -0.048462708 0.051974803 -0.014343267 0.06262211 -0.033349235 0.038248386 0.041754875 -0.10927807 0.06715023
watched 0.004825753 0.03184522 0.057016548 -0.007673459 0.023576166 0.045461033 0.09162041 0.03965263 0.08047427 0.0043541198 0.010948373 0.05407485 -0.037531648 0.104278885 0.07480224 -0.07478597
play 0.066168554 -0.0080761 0.0088444315 0.011203561 0.0009072126 0.00019800366 -0.07614771 -0.0076426365 -0.028627843 0.035949457 -0.008144051 -0.05751617 0.06403743 -0.012451813 -0.09217137 0.02825317
american -0.040633403 -0.009286319 -0.049840964 -0.096761666 -0.059926424 0.008504449 -0.032082703 0.014514261 -0.0404277 -0.047084786 0.14859416 -0.049458038 0.0773961 0.12541091 -0.012174568 -0.021760654
plays -0.044937517 0.0036932102 0.011220953 0.0067263576 0.04130127 -0.01045864 0.021534722 -0.00086418394 0.0011395086 0.069668345 0.08514162 0.037053544 -0.016413732 -0.022787604 0.046539422 -0.11952457
1 0.022811173 0.10605454 0.09328275 0.062296554 0.11229765 0.07206841 0.092305034 0.12365884 0.04695603 0.15902115 -0.08855357 0.11367542 -0.08611351 -0.011811753 0.14095542 -0.03773414
said 0.045453686 0.106385715 0.10141717 0.025383402 0.11899639 -0.02982964 0.014100781 0.04516304 0.043469034 0.03368071 0.08951596 0.047157377 -0.038881853 0.018469373 0.06969004 -0.03986058
effects -0.068832695 -0.029948696 0.022691319 0.03709108 0.057395015 -0.03459163 0.019622011 -0.010548111 0.009895739 0.057649706 -0.06379616 0.07791737 -0.018111916 -0.0457361 0.02476027 0.046303887
later -0.13323382 -0.048449744 -0.019137083 -0.0063517205 -0.03613401 0.053490244 -0.030004334 -0.025374653 0.034021616 0.04563194 0.017948547 0.025336552 0.053221818 0.018613512 -0.031036109 0.035837144
takes -0.025520943 -0.034539305 0.021380043 -0.05033999 0.014441217 -0.03123839 0.007330979 -0.014411708 -0.0030742686 -0.061260354 -0.0421695 0.048610926 0.011801923 0.013101716 0.01895499 -0.0021136936
instead -0.032609697 0.064048864 0.028447526 0.07570636 -0.0024982374 -0.005579006 -0.029630313 0.07735289 -0.0027975603 0.088240676 -0.037568342 0.060253546 -0.05956967 -0.051203527 0.0843145 0.041567106
seem -0.038701884 0.0037681647 -0.046428878 -0.017139528 0.03310047 0.0692795 -0.06618304 0.060766134 -0.021149628 -0.013955131 0.034888495 0.06591049 -0.06481901 -0.03295604 -0.04181938 -0.02241068
beautiful 0.11852098 -0.05010238 -0.08299716 0.08959079 0.015688637 0.02542492 -0.033632316 -0.05386002 0.05434852 -0.0026963241 -0.071249194 -0.010385644 0.12462504 0.047538836 -0.020263689 0.03810396
john 0.006103695 -0.015573898 0.054555297 -0.027536605 0.018676044 -0.020247675 -0.0639442 0.06359379 0.06348378 0.007404353 -0.08434827 -0.025983937 0.017033556 -0.024881229 0.012914771 0.0030457622
himself 0.010896129 0.061672084 0.018048728 0.03439081 -0.033391066 0.088391975 0.07723475 0.0013064796 0.0056735985 -0.015235695 -0.029563367 0.0108461 0.011545609 0.01495016 0.07140107 0.0014796634
version -0.08148229 0.0037194525 -0.012005231 0.025680153 0.026152262 -0.0014808375 -0.04974592 -0.04306747 -0.011789688 -0.0065269126 0.017603721 0.004223595 0.03515122 0.036776684 -0.03758834 -0.03640793
audience -0.019402517 0.057443406 0.043066777 0.04190968 -0.0035721622 0.012004336 -0.0025784657 0.050868362 0.02176514 0.01909928 0.014993392 0.058217965 -0.009618984 0.04858407 0.013589577 -0.048471756
high 0.019904494 -0.065610826 -0.042492103 0.018342776 0.0449832 -0.06692169 -0.06197571 -0.07078639 -0.12645645 0.019172266 0.03528658 0.01147714 -0.035070952 -0.076380655 0.007883617 0.075473934
house 0.018727798 -0.02861995 -0.036723636 0.030500967 -0.05627534 0.07433835 -0.033346754 -0.007827388 -0.011959076 -0.033057243 0.048106715 -0.0010680779 -0.022773748 0.0096019 0.04959161 0.0020936502
night 0.08689313 -0.00041611065 -0.024912965 0.027270352 0.015640127 0.05163024 -0.020943489 -0.022883914 0.02687065 -0.07968531 0.025711643 -0.097907916 0.00045401827 0.034240384 -0.021575805 -0.031231217
during -0.022553314 0.024833519 -0.01721272 0.014019436 -0.0108624855 0.047388602 0.03835648 -0.013438034 -0.013313614 0.008999645 0.05645255 -0.05908225 0.021226855 0.008636694 0.019125069 -0.040204912
everyone -0.09848658 -0.047016915 -0.044318173 -0.03053427 -0.10265239 -0.04117816 0.007968739 -0.06024227 -0.05589316 -0.060911987 -0.04279368 -0.02895115 0.032778658 -0.078954026 -0.08448537 0.018421855
left -0.03606073 0.07478804 -0.009555948 0.038227793 0.021515526 0.057583887 0.015946154 0.059465654 0.03925017 0.03997228 -0.021682084 -0.0032281645 -0.02808884 -0.06654231 -0.012295864 0.00037984896
special -0.00523367 0.029577628 -0.057560723 -0.00791731 -0.031876072 -0.10753846 -0.07270147 -0.0158235 -0.0694051 0.015246451 -0.050082814 -0.06222256 -0.0058142385 0.007352286 -0.045353137 0.0627028
seeing 0.07433818 0.026034523 0.0033065474 0.0143199675 -0.02112376 -0.03087512 0.025358517 0.0051009785 -0.00055742584 -0.02758384 -0.031180425 -0.060016043 -0.01724846 0.015122192 0.0019434371 0.06880848
half 0.10362618 0.013704435 0.08743645 0.06620739 0.06511637 -0.017972788 -0.012848872 0.07812052 0.071925424 0.06858743 0.032385472 0.055527117 -0.10876834 -0.0096559925 0.093519166 -0.07974133
excellent -0.10848941 -0.088635884 -0.16832657 -0.04872978 -0.11686692 -0.053755704 -0.0039500603 -0.12429125 -0.05637956 -0.083753735 -0.04353893 -0.11034281 0.08019733 -0.04195804 -0.12255185 0.042407382
wife 0.049543906 0.007679278 0.036039192 0.008249446 -0.002300047 0.005858941 -0.046589516 0.009848857 0.004585405 0.040579453 -0.009404594 0.021936 -0.006783035 -0.0021219086 0.0022518283 0.009260879
star -0.011205866 0.017714847 0.062683396 -0.016166963 0.054757632 0.03484026 0.05009796 0.017865868 -0.04841096 0.020492047 0.03961669 0.019190947 0.012937499 0.001543924 0.035132874 0.03837236
shot 0.07241132 0.018580802 -0.010712491 0.02661168 -0.03037079 -0.017577955 -0.015107992 0.02260217 -0.001391773 0.033927217 -0.024224509 -0.036606826 0.015498179 -0.013870789 0.05296917 -0.043646835
war 0.07119145 0.0077794436 -0.091292486 -0.05622472 -0.042808056 -0.012005785 0.056671817 -0.012801409 -0.0152418325 -0.021170964 -0.061175518 -0.0025761432 0.051536303 -0.048171196 -0.050672643 0.06829648
idea -0.0044871117 0.022067074 0.040683642 -0.0003202976 0.10206104 0.072329946 0.04461675 0.050902158 0.035861596 0.07745119 0.07308938 0.039266482 -0.10807048 -0.01966433 0.025729869 -0.041393474
nice -0.007699373 -0.03574324 0.021029383 -0.06310469 -0.06427132 -0.010198425 0.022634475 0.00879513 -0.027024128 -0.061651323 -0.004059191 -0.085955225 0.012367562 0.10786107 -0.06915745 0.04755779
black -0.04065384 0.07962924 -0.0016154792 0.05301443 0.035868686 0.013005807 -0.040066715 0.042307124 0.07317774 -0.003814763 0.010719801 -0.031686004 -0.00034945374 -0.045757003 0.018069455 -0.0030172756
less 0.036918145 0.034260314 0.05118815 -0.043508366 -0.049517438 -0.029503739 -0.039564017 0.05812947 0.0072251097 0.03970923 0.042291578 0.02187572 -0.019553872 0.021762421 -0.018864745 -0.0010316683
mind -0.048358966 0.049433462 -0.018120728 0.067001805 -0.024034284 -0.028144933 0.030318059 -0.03480654 0.04709024 0.023454668 -0.07857898 0.042699624 -0.008995749 0.010094318 -0.060930274 0.021399327
simply 0.0014941886 0.019815715 0.049517762 -0.022411898 0.068253115 0.060780987 0.03336256 0.098328374 -0.008147585 0.04306742 -0.067097835 0.11243436 0.0031419843 -0.073444344 0.06490347 -0.018622529
read -0.03410271 0.002091317 0.01068729 0.0046365056 0.028340986 -0.03608489 -0.064070605 -0.025929675 -0.06388043 0.044887826 -0.06107085 -0.043958362 -0.07195595 0.024358083 -0.039542954 -0.03705098
second -0.019642686 0.044739544 0.031074608 -0.02100226 0.017763253 0.10351627 0.013958338 0.03415595 -0.01470096 -0.0074082 -0.025821088 -0.006705762 0.019298883 -0.021843543 -0.033832602 0.015157658
else 0.018412285 0.101064384 0.030578027 -0.0036074433 -0.00187651 0.029153293 0.039763823 0.053779837 0.09546953 -0.035168424 0.08816181 -0.034375098 -0.070675865 0.022489939 0.04530066 -0.05875658
you're 0.014701451 -0.04185931 0.0017252053 0.0011659011 0.06649058 0.028840682 0.049249165 0.0042711347 -0.026115332 -0.016964862 -0.014944818 -0.030914605 0.043668628 -0.002272076 0.089772224 -0.0009587972
father 0.14334312 0.033541128 -0.03173641 -0.00040603266 -0.012279882 0.009460169 -0.009840235 -0.084302686 0.019593474 -0.035310533 0.011536881 0.033246115 0.071265996 -0.030713059 -0.0016634467 0.032445125
fan -0.060830016 -0.018075436 0.021407243 -0.042593136 -0.03190673 -0.014415218 -0.011261566 -0.0067083533 0.017664123 -0.018740777 -0.02732826 -0.04251425 0.041048255 -0.033870805 0.04673305 0.011003194
poor 0.17860474 0.08627273 0.10312779 0.010368598 0.11827304 0.045750983 0.046399966 0.14822754 0.10157892 0.12912834 -0.101247 0.03136895 -0.15991797 0.16670382 0.108542636 -0.08428193
help 0.08678771 0.109394655 0.053557497 0.013863045 0.060458016 -0.0064779436 -0.0062926435 -0.014685101 0.051689982 -0.03275805 0.078431465 0.022422792 -0.0040795654 0.045618795 0.0018561984 -0.050067242
completely 0.03923677 -0.005236896 0.034712706 -0.037637502 -0.0047966754 0.06090378 0.029670337 0.05977982 -0.018521251 0.03327937 0.05355239 0.030708808 -0.004818063 -0.03647077 0.053412925 -0.038182102
death -0.012768853 0.010811161 -0.016508225 -0.0010588957 0.058401875 -0.02032869 -0.06951321 0.0343028 -0.0056442576 -0.039303403 0.010908861 0.0069673713 -0.050648134 0.0065118866 -0.017965108 0.023917094
3 -0.013486744 0.09811733 0.065726206 0.026484624 0.06827407 0.0018027906 0.09295159 0.12115241 0.074062206 0.03455284 -0.006378878 0.033819504 -0.04239932 -0.01791547 0.12919068 -0.0370287
used 0.05844043 -0.014529114 0.020554887 0.026600497 0.0020656015 0.04312066 -0.04048446 0.025239676 0.03901976 0.08442618 0.08720168 0.018100487 0.004870988 -0.063247025 0.030139495 0.0032421187
home -0.013239301 -0.003918396 -0.017999144 0.09181432 0.05365423 -0.009969174 0.044210598 0.068602026 -0.018957876 0.032931335 -0.04564349 0.05663692 -0.0058848644 0.038879037 -0.0066510797 0.004156312
either -0.1146288 0.047812663 0.08220318 -0.058538888 0.05697782 0.018840756 -0.020830581 0.086755045 0.073250264 0.032659195 0.056094665 0.043449424 -0.04918779 -0.072790034 0.064977884 -0.003917942
short -0.06679821 -0.019673273 -0.016733257 -0.07435044 -0.060821913 -0.012939509 -0.023912992 -0.050785556 0.027139435 -0.07020034 -0.021684835 -0.057618264 0.007631 -0.004376576 -0.0040451046 -0.004338249
line 7.138808e-05 0.00015209425 0.0366499 -0.031792525 0.085444316 0.042176757 0.046345897 -0.0050961557 0.09290849 0.073813856 0.09965102 -0.018221457 -0.007264431 -0.0046084095 0.022541385 0.03862968
given 0.06097085 -0.021376666 -0.05064593 -0.032211088 -0.029342353 -0.06542194 -0.058826357 -0.059756067 0.027514359 -0.022495396 0.013334901 0.04641079 0.038549386 -0.045711514 0.004914002 -0.015296639
men -0.05932969 -0.081199355 0.014649663 -0.041685853 0.00821142 -0.055295296 0.013612684 0.009179865 0.06170165 0.012489766 0.008888523 -0.0397698 0.030220073 -0.0036344866 -0.010138068 -0.046817727
top -0.0005715819 -0.046886995 -0.049979787 0.025188532 -0.09626001 -0.075510316 -0.08862181 0.01531689 -0.019699667 -0.050156377 -0.040794622 0.0023176556 0.043861147 0.02787212 -0.046217207 0.018758234
dead 0.030741524 0.0019591078 -0.039022405 0.022274263 -0.006378224 -0.021571925 -0.037037186 -0.025513032 -0.067652985 -0.012324233 -0.06840559 0.0010940621 -0.010633499 -0.066507794 0.002342804 -0.022384625
budget 0.02057631 -0.0127427885 -0.052885707 0.04702904 0.036727883 0.0389366 -0.040309105 0.026692597 0.061253376 -0.009386818 -0.0017778976 -0.006421741 -0.037521396 -0.025707137 0.059291925 -0.03326122
try 0.025817445 0.012395677 -0.008365396 -0.015777275 0.061754685 0.050987374 -0.06064629 -0.033187468 -0.04784851 0.037862096 0.07671051 0.030886551 -0.002307519 -0.042425137 0.044130176 0.027876094
performances -0.094393365 -0.045267098 -0.0286889 -0.09352537 -0.12802704 -0.047643892 -0.054653693 -0.040240556 -0.11642068 0.0058695204 0.036122944 0.06744498 0.10181426 -0.08023159 -0.09995525 -0.11208706
wrong 0.06429499 -0.043719586 -0.026035624 -0.06265305 -0.020596335 -0.027930595 -0.0025543321 -0.02631203 0.03831392 0.06388058 -0.13789348 -0.01270437 0.04825292 0.0008759447 0.019149758 -0.019596964
classic -0.042325445 -0.0058656423 0.029202072 -0.045132913 -0.088031165 -0.05157824 -0.024734994 0.019500928 -0.048534073 -0.050003786 -0.06611334 -0.04786376 0.081809655 0.077083014 -0.035401974 -0.0033730546
boring 0.045714412 0.1912618 0.08501021 0.07930727 0.13268888 0.08487171 0.124293655 0.21133722 0.11300315 0.1393876 0.01928398 0.054641545 -0.13744597 0.10430354 0.118943386 -0.086151384
enjoy 0.08925912 -0.08652749 -0.09496901 -0.07260887 -0.100155264 0.04159601 -0.09449334 -0.05578201 -0.03877669 -0.016699936 -0.054308847 -0.07636881 0.027135683 0.013853125 -0.04380032 0.07744465
need 0.015718754 -0.00010534469 -0.061160374 -0.042058572 0.0013197825 -0.050554916 -0.097164385 -0.055273023 -0.034995474 -0.024369193 0.015108846 -0.0049323547 0.018914184 0.04408194 -0.032995407 0.011175461
rest -0.03585469 -0.00047631498 -0.020577969 0.007896722 0.015534716 -0.005660737 0.083929494 0.058566183 0.034046855 0.0014596485 0.085193984 0.008578153 0.005290298 -0.0105148675 0.058313534 0.03242649
use 0.050785825 0.066092975 0.0360466 0.011393469 0.07262182 -0.0018495371 -0.0013919933 0.030876841 0.016139213 0.040522374 0.09015582 0.014156082 -0.058207057 0.01528039 -0.025824092 -0.039488763
kids 0.008332992 0.0025563464 0.031518217 0.0053656027 -0.03478806 -0.05084527 0.03168174 -0.024782592 0.09007781 0.042971846 0.052057017 0.008973894 -0.012139908 0.016216375 -0.03139701 0.00828044
hollywood -0.035370585 -0.0015466103 -0.04786155 0.06394928 -0.07226587 0.05203309 0.0060916645 0.0025865743 -0.0014863936 -0.019569473 0.04583857 0.0016424488 0.05830157 -0.0005405235 0.035513084 0.027138453
low 0.0477357 0.05385587 0.032961015 0.083812036 0.06199694 0.04742469 0.029158095 0.04573451 0.06471597 -0.014880807 -0.04065935 0.037524767 -0.011939125 0.0011206906 0.013240506 -0.06301355
production -0.042381756 0.05753856 0.047701668 -0.005429144 -0.014387824 0.042971667 -0.09232156 0.08827666 -0.0020571977 0.057226952 -0.01238261 0.07963651 -0.0068278736 -0.0676106 0.0507243 0.0065221223
until -0.049756657 0.00083164737 -0.04137934 -0.0008769524 -0.08235155 -0.052716676 0.013409426 -0.05469698 0.007849007 -0.03577278 -0.06923062 -0.03564513 0.07061742 0.0005027312 -0.0778494 0.0029163396
along -0.040120974 -0.03704714 -0.025241757 -0.05596308 -0.07543899 -0.010265468 -0.08159547 -0.02916563 0.009949219 0.0778849 -0.05128703 0.049884744 0.04104914 -0.05691939 -0.064925104 -0.014753733
full -0.039096095 -0.00487698 -0.00022345467 0.04130222 -0.047360748 -0.06056747 -0.00701894 -0.04882224 -0.008183273 -0.022016246 0.0072780307 -0.062006705 -0.02493393 -0.03944551 -0.0072536143 0.02055661
friends 0.0061507695 0.02284055 -0.004574783 -0.01964914 0.04549893 -0.027188327 0.041187417 -0.017452098 -0.041176055 -0.080319755 0.0054392084 0.052820463 0.039623663 -0.0035636753 -0.017224867 -0.025930144
camera 0.03251768 0.025383051 0.0063063977 0.015347692 -0.025510354 0.06640291 -0.02871219 0.0791144 -0.027149137 0.051010117 -0.03185114 0.029381238 0.008228944 -0.0560786 0.06844845 0.04900533
truly -0.043673266 -0.025370417 -0.06800102 0.03123325 0.02548963 -0.053078577 -0.11338777 -0.09095793 -0.07320406 -0.011337831 -0.061292578 0.05389409 0.041165538 -0.078693256 -0.062691234 0.07119872
women -0.06657158 -0.01013518 -0.0047471286 -0.013044299 -0.01727091 0.057509523 -0.05013303 0.005197252 -0.07828272 0.037433244 0.042229094 -0.03618293 -0.054148536 0.011198854 -0.024552941 -0.029017895
awful 0.034985293 0.14377119 0.102591544 0.19079559 0.16792454 0.07109889 0.13534182 0.179615 0.18824339 0.07905633 -0.08929223 0.054790426 -0.10222927 0.12773012 0.18249409 -0.08823714
video 0.009904205 0.029914925 -0.018490558 0.06225925 -0.062240314 -0.004551694 -0.009446913 -0.07035632 -0.092009924 -0.041670393 0.040018972 0.005688602 -0.026373042 -0.10029687 0.016332347 0.021078708
next -0.070524886 -0.0086515285 -0.0052803718 -0.015683562 -0.06585628 -0.0061868657 0.057136234 -0.0020371352 0.016165746 -0.01065715 -0.06310475 -0.028312853 0.06835684 -0.06240336 -0.038779136 -0.026779601
tell -0.06269607 -0.03590117 -0.008323952 -0.06393679 0.0434577 -0.03879821 -0.01873255 0.020023653 -0.029524177 -0.023609437 0.036502328 -0.027566515 0.027583709 -0.038976137 -0.015498493 0.03495093
remember -0.04083224 0.03763179 -0.014624256 0.03394696 -0.053518455 -0.0123160845 -0.040371675 0.0024732847 -0.046889536 -0.0061094784 -0.006643064 0.0001971281 0.0333091 -0.05105319 -0.010228588 -0.026615717
couple -0.023011247 0.057913408 0.059189674 0.010564427 -0.03347539 0.0032033592 0.06094937 0.08159111 0.04009427 0.06879022 0.048424967 0.008902334 0.0018141752 -0.05890482 0.10013683 -0.01861785
stupid -0.044249 0.067365795 0.09996747 -0.05094947 0.11807844 0.02223824 -0.03292965 0.04009625 0.091033824 0.041353103 0.011513025 0.13053592 0.0069812303 -0.054710113 0.10078928 -0.08424402
start -0.00939291 0.071792886 0.05856609 0.07532899 0.07262722 0.04065851 0.034406185 0.10768874 0.014636487 0.06311661 -0.016342089 -0.013306774 -0.01114416 0.027355826 -0.008132135 -0.08770891
stars 0.034140494 -0.031449623 -0.04966658 -0.00838008 -0.013281809 -0.0042561116 -0.00856428 0.044706542 -0.022192203 0.044923857 -0.0033273457 0.0099856965 -0.023460364 0.017362643 -0.01781404 -0.016104022
perhaps -0.011442459 0.013193012 0.06624436 0.013013375 0.059417598 0.051761486 0.10407063 0.013662656 0.062520534 -0.0059474795 0.05587012 0.030329715 0.0012730343 0.028585486 0.024976889 -0.07818541
sex 0.00027879272 0.060999725 -0.014189168 0.017050512 0.05617397 -0.0039467877 0.016877262 0.081851974 0.013413032 0.0029856504 -0.0008239878 0.016190447 -0.009336543 -0.086980864 -0.011970538 0.060970984
mean -0.062271226 0.040524047 -0.021210188 -0.051127236 -0.0014611589 0.06651182 -0.045346513 0.056220446 -0.06896631 0.039236456 -0.09608451 0.059859123 -0.034747466 -0.095170535 0.043417845 -0.01666732
came -0.027154388 0.025402525 -0.011036589 0.031139709 -0.02616977 0.045369234 -0.020122709 -0.020550247 -0.032029748 0.035813592 0.033992458 -0.021333393 0.019497193 -0.022101479 0.018659567 0.058604784
recommend 0.080175854 -0.06366431 -0.008968342 -0.06519538 -0.05709181 0.0022780504 0.0833666 -0.0665179 0.0092086885 -0.028633453 -0.099317744 -0.059072863 -0.02792056 -0.0055654473 -0.11588279 0.04131748
let -0.021352854 0.050584596 0.044487946 0.0078667365 0.012933609 -0.04755255 -0.043724228 0.059720956 -0.030349916 0.008235371 0.01489614 0.01719139 0.029913116 0.0105623165 0.017455874 0.034974936
moments -0.014023125 -0.019912524 -0.030337924 -0.033870205 -0.06414646 -0.049586933 0.06497917 0.011898411 -0.06327576 -0.10444395 -0.040232584 -0.08700175 0.0056572948 0.05651195 -0.058349032 0.026519598
wonderful -0.036849577 -0.106416166 -0.1155433 -0.012084236 -0.14698005 -0.09917078 -0.105852656 -0.15242799 -0.13137628 -0.102129295 -0.13896802 -0.060507596 0.078587465 -0.0160078 -0.12835479 0.17621137
episode -0.009609995 -0.061940704 -0.12855421 -0.09130498 -0.08195531 0.004114019 -0.03446638 -0.09832636 -0.0027221912 -0.0093721105 -0.08486437 0.020449683 0.05503456 -0.0034746584 -0.012482472 0.04535178
understand 0.008449775 -0.0050997054 -0.046027143 -0.05333521 -0.047750305 -0.020628197 -0.042902965 0.0066183964 0.0020594932 -0.0043030106 0.011503773 -0.073139325 -0.0027520321 0.05219114 -0.028255729 0.05025234
small 0.053285226 0.034768213 0.009549697 0.002232111 0.002296408 0.010141864 0.07473217 0.020080954 0.08361125 0.02640446 0.036372487 -0.044192463 -0.008826662 0.03405491 -0.009207812 -0.07141204
face -0.039593756 -0.014669652 0.013250687 0.04390328 0.006247196 -0.04315827 0.050354764 0.06945369 0.022341598 0.01345566 0.08806644 0.08864333 0.030844504 0.009910437 -0.023160273 0.029123168
terrible 0.029511113 0.08318435 0.04614727 0.085047215 0.07475921 0.055497184 0.071686625 0.15595044 0.06716465 0.023282124 -0.10819413 0.05329878 -0.1155168 0.047788847 0.13667 -0.07757493
playing 0.10521238 0.048117884 -0.019145494 0.014919011 -0.013275231 0.035871394 -0.021942237 0.03342196 -0.022791414 0.039114524 0.047410805 0.02136509 -0.050026335 -0.016141033 0.0050943256 0.0015259509
school 0.1004847 0.028837474 0.038511403 -0.017328609 0.07931182 -0.004118287 0.031449463 0.02179808 0.054365043 0.05350059 -0.02479963 -0.028500665 0.008469266 0.054437887 0.04279357 0.009377637
getting -0.04963243 -0.014764919 -0.02094294 -0.0005002587 0.029649835 -0.097028814 -0.054574203 -0.043150447 -0.03766202 0.045825467 -0.010981155 0.048418853 0.0376761 0.032517735 0.03186335 0.009023813
written -0.10216165 -0.06877294 -0.026183134 -0.008792394 0.0407343 0.1044291 0.00023550072 0.106610134 0.08398745 0.066244304 0.017038548 0.014449046 -0.040296398 -0.12700862 -0.008477982 -0.054129273
doing -0.018454501 -0.020375585 0.103681 0.018435711 0.08823086 0.056044664 0.016938709 0.014451958 0.053371985 -0.033296138 -0.00021695215 0.00990789 0.017022993 0.040839408 0.075852975 -0.04599315
often 0.06402054 -0.056445286 -0.046604343 0.01928804 0.00620912 -0.03820102 -0.052507095 0.012259838 0.06090583 0.05642028 -0.13099673 0.02287311 0.047165632 0.06993521 -0.035069607 0.03553202
keep 0.052087296 -0.057035882 0.044414878 0.06216103 -0.018564563 0.019778147 -0.000605835 0.015307684 0.069149815 0.0626101 0.062092658 0.0037198924 -0.0022794113 -0.00034183924 -0.010458735 -0.023052476
early 0.007525556 -0.028881814 0.058357354 -0.0779216 0.040482126 -0.017376645 -0.021431169 0.02636695 0.06381724 -0.01258762 0.048785534 0.028343746 0.009610408 0.06484739 0.007513105 -0.034373056
name 0.049917337 0.015566016 0.046625998 0.035803556 0.06178248 -0.09282379 -0.07694519 0.040454254 0.0551604 0.070679136 -0.0064278175 -0.0099561615 0.013574276 0.032352295 -0.016216729 -0.0044520935
perfect 0.03682153 -0.10579344 -0.123213686 -0.105437055 -0.1176581 -0.028608264 -0.110522486 -0.060616173 0.115449846 -0.0828999 -0.07315379 -0.11704271 0.17516468 -0.031007666 -0.14466265 0.18319647
style 0.061801367 0.008289247 -0.019278863 0.040830765 0.010568222 -0.033807043 -0.023004241 0.01241226 -0.042440355 -0.008968574 -0.0206828 -0.033569727 0.05930225 -0.0057683936 0.004404399 0.053248137
human 0.002384765 0.01377709 -0.029799893 0.0065443353 -0.025112009 0.007580286 0.017414749 -0.023403876 -0.0966963 -0.042505343 -0.0044212025 0.044088576 0.073265135 -0.054488454 -0.08194578 0.05923391
definitely -0.096951015 -0.12684654 -0.04830127 -0.12775403 -0.107041635 -0.055053778 -0.05274334 -0.039101783 -0.05863242 0.0066527785 -0.08572823 -0.098228715 0.15570898 0.0017490179 -0.09907915 -0.104260854
gives -0.006474012 -0.022690924 -0.03803131 -0.027012981 -0.0061453823 -0.09369864 0.01947278 -0.08526156 -0.051098038 -0.018465089 -0.08869909 -0.012813857 0.015188836 0.015231331 -0.07927382 -0.029535886
others -0.08199118 0.016024455 0.023154406 -0.017918024 0.0064466805 0.07007825 0.0457332 -0.0024823868 -0.048660066 -0.03656694 0.041783337 0.010223961 -0.0055290745 -0.039631557 -0.08755862 0.0063811806
itself 0.08568267 0.043371752 0.036576033 0.05156381 0.06360435 -0.035256833 -0.0048982305 0.13652562 0.0084125465 0.04292453 -0.060188208 0.050397184 -0.053310916 -0.1063406 0.036501866 -0.058246862
lines 0.030845774 -0.00980059 0.0368872 0.006951313 0.015475249 -0.03242402 -0.037567362 0.03206738 0.0020336742 -0.047691006 -0.04119322 -0.012584226 -0.032724544 0.07340153 0.036207832 -0.054708462
live 0.06451639 -0.021652825 -0.06949074 0.03783165 -0.05517558 -0.038137358 -0.016638279 -0.10184677 -0.051155772 -0.035548635 0.0125401495 -0.040114313 0.016214594 -0.029091835 -0.068767525 0.017181953
become 0.04774145 0.016051434 -0.0012778178 0.029235432 -0.031489365 0.02358155 0.012829513 -0.029072776 -0.004472224 0.02517694 0.03059064 -0.054581963 0.06309252 -0.018757353 -0.03439781 0.028416073
dialogue -0.01521665 0.026410678 0.048556387 -0.0051752967 0.07527456 -0.002962143 -0.057983775 0.024489136 0.017507413 0.06243091 -0.012760448 -0.0046693957 0.037322767 -0.011239276 0.042929452 -0.011511965
person -0.054900263 0.013735044 -0.052626684 0.08040138 0.03824423 -0.022768756 -0.013054716 -0.020793678 0.052222747 0.022988724 0.010144856 -0.0022389719 0.040586315 0.04784545 0.01638442 0.08348106
lost -0.014025604 -0.005493084 0.0357659 0.06587573 -0.019201629 0.0371065 -0.005147869 0.062097695 0.081487514 -0.0017880617 0.1206393 -0.0292421 -0.011594976 0.0943593 0.080346085 -0.012843389
finally -0.08937897 -0.044706378 0.020815913 0.12686257 0.017494284 0.04256718 0.06071054 0.0052206134 0.01284785 -0.009777172 -0.07418413 0.025742644 0.0517456 -0.01933622 0.00069977297 -0.045891125
piece -0.0627683 -0.030368194 -0.011810321 0.0140281115 -0.010314196 0.08316553 -0.03412707 0.038648076 0.03202617 0.056748707 0.018693365 0.07655472 -0.035201747 -0.093487 0.07067143 0.048033472
head 0.03979431 0.05908479 0.029707938 0.056050736 0.108915746 0.07746449 0.069297686 0.051614963 0.027598528 -0.0065144016 -0.04285005 0.037114713 -0.04847626 0.06471821 0.07881916 -0.03215462
case -0.05915987 -0.05949361 -0.039685506 -0.07359954 0.015292185 0.045616746 0.05649243 -0.07106242 -0.034029484 -0.004288542 -0.04233682 -0.038040143 0.058345173 0.030915754 0.033173382 -0.04907088
felt -0.038775366 0.024568994 -0.0048984196 -0.044593778 0.03334626 0.024989644 -0.04226404 0.014888994 0.058720563 -0.0050313505 -0.018497812 0.033719428 -0.016468149 0.05286138 -0.018934319 -0.019243956
yes -0.0038472281 0.0047583063 -0.064808324 -0.032121886 -0.053096615 -0.0742508 -0.016151717 -0.06136958 -0.014968705 -0.12153656 -0.0010832307 -0.018669883 0.022859398 0.03686368 -0.03755945 0.028513381
liked -0.0040699556 -0.10765998 -0.103161976 -0.013344376 -0.033051413 -0.05022007 -0.028925613 -0.052418526 0.009675752 -0.00958622 -0.012916111 -0.04818904 0.080660865 -0.058675356 -0.027096007 0.041385397
supposed 0.03269509 0.035965998 0.053336434 0.010458054 0.08162544 0.026969435 0.011609623 0.12386976 0.11440809 0.081950955 0.035492953 0.10687381 -0.07532883 0.091091834 0.09496556 -0.06675071
title -0.06545728 0.06297358 0.03083657 0.005594384 0.011010527 -0.0059416285 -0.03318199 0.031139845 0.046552368 0.037480563 -0.025639353 0.0040233466 -0.02782757 -0.10758781 -0.007688969 -0.030667339
couldn't 0.03890391 0.07607953 0.0003389227 0.08360484 0.09863023 -0.009978236 0.016276894 0.096421964 -0.009215464 0.06107548 -0.026680449 0.01201961 -0.07130246 0.03324725 0.07082116 0.0059890514
absolutely -0.00057886745 0.0020723613 0.02699173 -0.037047178 0.0058616637 0.0308697 0.056599226 0.004032425 0.006728676 0.12063291 -0.0019963053 0.043894175 0.001657619 -0.105729 0.07525694 -0.01209612
white 0.0015848611 0.029164605 0.002093454 -0.0024060335 -0.049712222 -0.04764778 0.050101325 -0.05839519 0.015657239 -0.037368543 -0.07002539 -0.05380244 0.039004374 0.048533197 -0.011794966 0.01856627
against -0.030464599 -0.041539274 0.011957295 0.012789079 -0.00010061533 0.04051415 -0.00112098 -0.06547688 -0.007443909 -0.002325927 -0.016117504 -0.019322494 -0.02886014 -0.029489819 -0.06282596 0.01272736
boy -0.083967336 -0.020275624 -0.017185409 -0.1012558 -0.037124142 0.022095108 0.018650057 0.0049316147 -0.04544336 -0.009051705 -0.008488643 -0.050279383 0.0072717215 0.031139685 0.022450034 -0.029372009
picture 0.07666908 0.011269974 -0.025397498 -0.0226382 -0.04135651 -0.019104755 -0.048621476 0.045908008 0.009998744 -0.017701624 -0.021713177 0.03907552 0.02136839 -0.009033636 5.932435e-05 -0.013642626
sort -0.020975819 0.047031667 0.027524197 -0.047732364 0.035621013 0.0013674574 -0.0047863675 0.023820823 -0.0080073085 -0.041802414 -0.01495825 0.026033299 0.04782966 -0.04845092 0.042337164 -0.0049458933
worse -0.042317443 0.092103876 0.12205531 0.09363473 0.07534216 0.079120345 0.06604042 0.124336205 0.05103682 0.054188665 -0.07923478 0.10062461 -0.1260825 -0.026866294 0.19256818 -0.03264686
certainly -0.023129039 -0.072820075 0.030588279 0.005980286 -0.03289249 -0.0015023296 -0.004575953 -0.007173364 -0.017370917 -0.051357 -0.026179617 0.0025774273 -0.008227622 -0.11210974 -0.035364136 -0.041125234
went -0.0016122775 -0.022651806 0.03902383 -0.03846204 0.08687544 0.055112045 0.04742272 0.049717646 0.014625081 0.022365913 -0.077966355 -0.030522317 0.03589014 -0.023418868 0.09493841 -0.014553966
entire 0.06181629 0.061587848 0.04932293 -0.011246591 0.06729531 -0.064462684 0.0015089267 0.002261981 0.086985245 -0.025150994 -0.035417527 0.12108881 -0.014048479 -0.05881066 0.0052300463 -0.00847725
waste 0.123173356 0.19936992 0.19407046 0.09327939 0.18968107 0.1033694 0.108926974 0.18973298 0.074417055 0.17235385 -0.19111055 0.12151406 -0.14550705 0.12917608 0.14835735 -0.13775177
cinema 0.018942902 -0.031489644 -0.07276612 -0.046956018 -0.056928664 -0.10810647 0.06838626 -0.0369116 -0.055738885 -0.035087574 -0.090274826 -0.04835942 0.0048340224 0.021473033 -0.097755186 -0.027982263
problem -0.027225912 0.06361607 0.075304806 0.076794855 0.026123352 -0.018185262 0.0290935 0.09442517 0.024459427 0.013215722 0.09461003 0.046934403 -0.08593791 -0.010139327 0.04328222 -0.06762862
hope -0.070429586 0.010580865 -0.041668583 -0.06543781 0.025808372 -0.10148145 -0.085871056 -0.07470869 0.014461749 -0.0696581 0.026125902 -0.057704147 -0.018792048 -0.0277146 0.005555004 0.018814372
entertaining -0.10057563 -0.12032263 -0.040317673 -0.1088121 -0.12725489 -0.16815579 -0.013281686 -0.15216476 -0.10576696 -0.018344851 -0.03317746 -0.11582426 0.074718975 -0.038808662 -0.14143004 0.035106465
she's -0.026079383 0.019322641 0.004877742 0.00080630527 -0.021419326 -0.0056102592 0.07150884 0.04425824 -0.022805693 0.026247298 0.03560638 0.008486282 -0.00560483 -0.00017884848 -0.011249827 -0.046499904
mr -0.013920691 0.026361352 0.012442218 0.050288133 -0.068905786 0.013256556 0.021266488 -0.022726621 0.023834141 -0.017538408 0.06987436 0.05940666 0.026037712 0.017395765 0.041373044 0.009722316
overall 0.049530916 -0.03992545 0.042129945 -0.07802005 0.030980982 -0.015011034 -0.0028620143 0.040770177 -0.087761305 0.0154588455 -0.04085783 -0.03459263 0.075205736 -0.10136345 0.018112635 -0.0075091603
evil 0.029867249 0.036576282 0.0076238452 0.054065038 0.015028441 -0.027389215 0.0015604664 0.044792037 0.0061588474 -0.0029844686 -0.105359845 -0.00020269079 -0.048785932 -0.010149914 -0.016492806 -0.015978465
called 0.008619648 0.035594363 0.01670898 0.01843143 0.041847773 0.025749793 0.030310925 -0.0051291394 0.05127955 -0.03938451 -0.053068697 0.006796018 0.016723841 -0.020567121 -0.018080007 0.0379679
loved -0.08577501 -0.11471374 -0.086488925 -0.08306508 -0.12338435 -0.09675258 -0.03961483 -0.12911247 -0.052065186 -0.1041535 -0.07480513 -0.10193438 0.07868959 -0.06263687 -0.08316278 0.04678186
based -0.07991164 -0.088323265 -0.0026011285 -0.04795391 -0.05828614 -0.039108895 -0.006692554 -0.08438621 -0.01948355 -0.0001849384 -0.05076803 -0.024966765 0.061437536 -0.089594446 -0.023708874 0.02527972
oh 0.061969575 0.002212406 0.10327064 0.0067030457 0.13221277 0.04135119 -0.06974469 0.06560235 0.04641638 0.08160186 -0.08879667 0.15002078 -0.044759218 0.061577242 0.1251753 -0.10059946
several 0.0013659028 -0.018504055 -0.0105353715 -0.053555004 -0.016409269 -0.009000957 0.0060494253 0.009847857 -0.097500466 -0.07149417 0.015678342 -0.027378885 0.009965696 -0.0258677 -0.091494925 0.017917145
fans -0.038022954 -0.018076457 -0.022638429 0.014779376 -0.10025247 -0.09211789 0.0022854696 -0.10061154 -0.13425726 -0.06891087 -0.027464699 -0.09128055 0.060024016 0.05708065 -0.026054123 0.057156656
mother 0.07841538 0.05236181 0.005181878 0.06829408 0.0017462817 -0.0468505 -0.04806551 -0.0006736616 -0.031228773 0.01928605 -0.0340793 -0.030746054 -0.023062821 -0.0057586837 0.040781833 0.007585453
drama -0.030180277 -0.007308493 0.02607337 -0.004321085 -0.012271992 -0.05003425 -0.10712251 -0.0034269674 -0.07145831 -0.03472911 0.07355881 -0.023233194 -0.040025406 -0.06909952 -0.020683512 0.04344338
beginning -0.058331612 0.012882108 -0.0469741 -0.043183073 -0.020478772 -0.09831295 -0.046028852 -0.014845367 0.0033621714 0.013101121 0.042473882 -0.06529147 0.05513191 0.029389853 -0.054828245 0.04640268
killer 0.08989112 -0.04645947 0.020669 -0.015517986 -0.007215063 0.0022058391 -0.018108593 -0.017014999 -0.025208978 0.022340832 -0.02140894 0.014092207 0.013440066 -0.06862238 0.020484667 0.042016923
lives -0.025680736 -0.0024186494 -0.008876479 -0.05806613 0.036249276 -0.056024 -0.10794105 -0.009695455 -0.012631924 -0.020303044 -0.0007006218 -0.02344012 0.10245975 0.0036359613 -0.009939774 0.052839853
5 0.046467703 -0.030634971 0.01674403 -0.049769573 0.005326265 0.052380487 0.049356695 0.04395637 0.013794288 0.03520089 0.030883094 0.038491543 -0.031465553 0.046214297 0.045728516 0.017260047
direction 0.092652135 -0.009920893 0.010727207 0.027972592 -0.02743887 -0.09730071 -0.029832745 -0.010949786 0.07397072 0.04283953 0.08981061 -0.015764918 0.061748657 0.10393794 -0.020042894 0.008939168
care -0.024722807 0.10069078 0.06884928 0.110359564 0.028892789 -0.033418313 0.026885692 0.032701045 0.09578564 0.084169865 0.11631089 0.036049735 -0.073298514 0.03470731 0.05484206 0.0068104975
already -0.102764204 0.027044842 0.013938626 -0.055328425 0.030220257 -0.004199186 0.026484314 -0.03910659 -0.032412764 -0.04576126 -0.03933017 0.066181585 0.0059356503 -0.010333297 -0.008589875 0.008856189
becomes -0.055077985 -0.06545743 -0.0396056 0.010609445 -0.0030347607 -0.10478259 -0.014085424 -0.023057593 -0.030258961 -0.024611177 0.07611838 -0.006379867 0.0312233 0.036139574 0.058534585 -0.06489469
laugh -0.021521917 -0.026795764 0.023904094 0.059344925 0.032920793 0.050093226 -0.08815126 -0.0053670434 0.0223466 -0.043094024 0.0022331188 -0.08372828 0.057575025 -0.019432042 -0.007934655 0.058190748
example 0.007921706 0.06549808 0.05893048 0.09760245 0.027946038 0.019486316 -0.03927192 0.036099654 0.0025938647 -0.004787809 -0.05109427 0.017558185 -0.0008784689 0.008747153 0.06893771 -0.047729895
friend 0.09872669 0.08484042 0.015841948 0.08565043 -0.0010565929 0.05990467 0.031271327 0.011527172 0.08167021 0.03504664 -0.10002559 0.057554014 -0.042210486 0.08181043 -0.04149148 -0.0104071405
dark 0.035709556 -0.055467278 -0.015107018 -0.073910676 -0.071671054 0.074355334 0.05949435 -0.08629476 0.0043302705 -0.11473754 0.013037988 -0.10750195 0.0208998 -0.055907402 -0.04042141 0.08922422
despite 0.062155943 0.033692606 0.014218876 0.045824476 -0.0044068443 -0.029974733 0.03722319 0.014055849 0.012617603 0.018388383 0.0054197777 -0.025826205 -0.0034174128 0.042866934 0.037345447 -0.046873253
under 0.075426415 -0.032494735 0.0005878177 0.040944073 -0.031683534 -0.025049897 0.041488588 -0.012365804 0.007634157 -0.019738862 -0.0017900424 0.021537311 0.0036772399 -0.046927 0.022938794 -0.0075600143
seemed 0.07791098 -0.00915998 0.015123761 0.05271653 0.090915166 0.038812764 0.034886885 0.019885514 -0.0060347808 0.0021755672 0.011248266 0.002795655 0.048720084 -0.04269626 0.09069376 -0.011528566
throughout -0.107277155 -0.007665817 -0.048893094 0.010419935 -0.053015538 -0.022531196 -0.03734521 -0.034403853 -0.11447653 -0.04052163 0.027983619 -0.02945089 0.10453062 -0.118788525 -0.06288643 0.13325307
4 0.0009972424 -0.0221211 0.0700156 0.034922894 0.079295404 -0.00485136 0.031313036 0.03532887 0.023982452 0.011263133 -0.012142784 0.077422455 -0.080987856 0.06325071 0.057789758 -0.045695383
turn -0.060867153 -0.014933177 0.014813152 0.050164796 0.005537634 0.090631686 0.104575545 0.060293905 0.04535719 0.052157413 -0.03501064 0.034337904 -0.06286691 -0.027879227 0.09212758 -0.032041185
unfortunately 0.087736666 0.08323106 0.06816186 0.03621323 0.15089163 0.01768159 0.056479003 0.047831 0.076086394 0.06154103 0.021757906 0.07791471 -0.11047678 0.13736284 0.076146334 -0.1065831
wanted -0.05740509 -0.050635327 -0.02912158 0.05741967 -0.043684784 0.008262119 -0.027385317 -0.0022955013 0.013214198 -0.070783205 0.020600801 -0.029809268 0.020669742 -0.032719806 -0.0501582 0.05107319
i'd -0.006378854 -0.026777446 -0.023450349 0.047953848 -0.076753385 0.02843599 -0.0631782 -0.06602048 0.009488416 0.018415501 -0.0034696646 -8.208677e-05 -0.005733779 -0.035817333 0.008739292 0.122932374
 -0.054196835 0.04415162 0.007492637 0.052889597 -0.0014338092 0.0020359354 -0.021457793 -0.008658264 0.038883146 0.036723856 0.05875636 -0.02598427 0.04530483 0.023175228 -0.017826939 -0.003693146
children 0.06422498 0.009142273 -0.018322887 0.017497892 0.03238974 -0.02064111 -0.03290824 0.000760764 -0.017124468 -0.044362545 0.03705032 0.005671721 -0.05021679 0.025927562 -0.030675635 0.0047137244
final 0.06223641 -0.02505893 -0.017313948 0.04212194 0.06084445 -0.034079798 -0.04413375 0.0011375005 0.023689644 0.00072709285 -0.048890725 -0.027319903 0.030477906 -0.020202005 -0.12087954 0.07401731
fine -0.03229568 -0.02223767 -0.023449142 -0.019461576 -0.054405186 0.03125446 -0.08992984 -0.058134947 -0.06503543 0.022192877 0.033739194 -0.038422 0.08458136 -0.03518057 -0.0037771612 -0.037618075
history -0.008118819 0.0123337265 -0.044379804 -0.031968255 -0.03634352 -0.056765288 -0.016504364 -0.038043436 -0.059072282 0.014317305 0.011227888 0.02582792 0.047249626 -0.0347809 -0.011252444 0.048710994
amazing -0.094163835 -0.14100267 -0.08992597 -0.10406962 -0.13235287 -0.087659314 -0.07527102 -0.10909301 -0.06768952 -0.08573087 -0.09892996 -0.067293085 0.13939816 -0.10969132 -0.14164004 0.081160046
sound -0.0720828 0.0031839926 -0.01328317 0.007821233 0.0022788905 0.017963631 0.048406392 0.036369037 0.024091896 -0.047827043 -0.06654768 0.027464924 -0.010524257 -0.03537869 -0.044720028 0.04978185
guess 0.044450704 0.07422717 0.06297876 0.047020134 0.03559026 0.048811644 0.008222496 0.113270566 0.029068917 0.041612584 -0.030903712 0.055903357 -0.04288017 0.037168548 0.031906012 -0.019336563
heart 0.022387391 -0.08838365 -0.05151816 0.0025768355 -0.058515057 -0.062741496 0.00086635194 -0.045186006 -0.09696393 -0.035404973 -0.039353687 -0.083155185 0.06551905 0.009590487 -0.080288395 -0.0018982101
totally -0.1790749 0.009494343 -0.02358661 -0.086145304 0.015848437 0.048222695 0.07495564 0.046355724 -0.019441977 -0.02969705 -0.06725995 0.04168662 0.054161552 -0.1124215 0.04154242 -0.018370183
lead 0.015716549 -0.0279548 -0.0014091558 -0.053422958 -0.03095551 -0.0826189 0.030820634 -0.036097866 -0.005775254 -0.03774687 0.07209462 -0.011373866 -0.033416618 0.05718814 -0.019502986 -0.0442115
humor -0.012032109 -0.0037206598 0.009557272 -0.04452167 -0.032319497 -0.001693544 -0.14364575 -0.007931215 0.008756215 0.023818277 -0.0154467905 -0.051687557 0.055826083 -0.022622127 -0.07365585 0.06664565
writing -0.09131086 0.01761691 0.048932172 -0.08589524 0.08724096 0.021210322 -0.08135848 0.0841805 0.030252185 -0.061961524 0.0138799995 0.007858631 0.01677524 0.02693344 -0.0072557074 -0.055536438
michael 0.0028240406 -0.0054406123 0.020926429 0.017125934 0.015560534 -0.045480985 0.0012954257 -0.0676135 0.017566387 -0.045510605 -0.087572955 0.015211178 0.026537098 0.015841365 -0.059010305 -0.055756535
quality 0.008553495 0.037445154 0.022815892 0.024640188 0.0026356003 -0.054378547 -0.014861223 0.018516839 -0.049206283 -0.046874054 -0.0077459994 -0.05928304 -0.009900561 -0.11126234 -0.075434886 0.019114336
you'll -0.03371229 -0.03553689 0.014062405 -0.06467011 -0.05511928 0.003968645 0.040173754 0.012405782 -0.019263096 -0.041083787 0.011985117 0.044948194 -0.0059861476 0.06399773 -0.042019725 0.008887311
close 0.023073157 -0.07620001 -0.0152271185 -0.111904286 -0.0318963 -0.087286204 0.023832459 -0.06089783 0.0032073047 -0.058872703 -0.04125579 -0.005993091 0.06728691 0.079307355 -0.021059612 0.029659573
son 0.013017196 0.00350161 0.062342882 -0.016946893 -0.0086323675 0.01548895 0.05788508 -0.027831003 0.00709983 0.02636443 0.0059683397 -0.016896185 0.010146226 0.029381638 0.027083257 -0.025499307
guys 0.023318462 -0.021074768 -0.033636212 -0.0027453264 -0.0120587535 -0.032327257 -0.011535371 -0.04081711 -0.03638616 -0.023661803 0.05731078 0.0014087919 0.057061393 -0.034994483 -0.062911086 0.003195525
wants -0.017295148 -0.0011929634 0.0062301788 0.036862604 0.057739194 0.0045302073 0.073510304 0.02917072 0.035959393 0.035082765 0.09825359 0.066646025 -0.04067003 0.047293965 -0.008599563 -0.006167812
works 0.07645987 -0.03734025 -0.106148966 0.0077196117 -0.11288242 0.021655252 -0.008968789 -0.020852165 0.07593464 0.06631681 -0.06902317 -0.0768099 0.08353246 -0.0894193 -0.05493968 0.038600415
behind -0.014163643 0.016963877 -0.01242126 0.0009962324 -0.079437904 -0.07897204 0.022428237 -0.030579394 0.0061366227 0.033502523 -0.0025854732 -0.037413605 0.006304333 0.002179262 0.05866131 0.053855207
tries 0.012810729 0.0046271156 0.029237928 0.09513627 0.041813616 0.04139201 0.08787783 0.05099993 0.030295532 0.08506043 -0.07291702 0.015291481 -0.054331675 -0.04749636 0.043090772 -0.044934314
art -0.029516475 -0.045512006 -0.041600756 -0.05565842 -0.087608576 -0.035452712 -0.022011766 -0.06003139 -0.08737747 -0.02988485 -0.037829623 0.041629516 0.06294837 -0.08486557 -0.017278206 -0.0054993136
side -0.042430002 -0.040465195 0.060764045 -0.04305871 0.067613274 0.036281724 -0.034392 0.033640563 0.008158817 -0.030793663 -0.026309686 0.0029396329 -0.008896958 0.05667336 -0.022989472 0.010044859
